{"learner":{"attributes":{"scikit_learn":"{\"_estimator_type\": \"classifier\"}"},"feature_names":["koi_period","koi_time0bk","koi_duration","koi_depth","koi_max_sngle_ev","koi_max_mult_ev","koi_num_transits","koi_steff","koi_slogg","koi_smet","koi_srad","koi_smass","ra","dec","koi_kepmag"],"feature_types":["float","float","float","float","float","float","float","float","float","float","float","float","float","float","float"],"gradient_booster":{"model":{"gbtree_model_param":{"num_parallel_tree":"1","num_trees":"100"},"iteration_indptr":[0,1,2,3,4,5,6,7,8,9,10,11,12,13,14,15,16,17,18,19,20,21,22,23,24,25,26,27,28,29,30,31,32,33,34,35,36,37,38,39,40,41,42,43,44,45,46,47,48,49,50,51,52,53,54,55,56,57,58,59,60,61,62,63,64,65,66,67,68,69,70,71,72,73,74,75,76,77,78,79,80,81,82,83,84,85,86,87,88,89,90,91,92,93,94,95,96,97,98,99,100],"tree_info":[0,0,0,0,0,0,0,0,0,0,0,0,0,0,0,0,0,0,0,0,0,0,0,0,0,0,0,0,0,0,0,0,0,0,0,0,0,0,0,0,0,0,0,0,0,0,0,0,0,0,0,0,0,0,0,0,0,0,0,0,0,0,0,0,0,0,0,0,0,0,0,0,0,0,0,0,0,0,0,0,0,0,0,0,0,0,0,0,0,0,0,0,0,0,0,0,0,0,0,0],"trees":[{"base_weights":[-1.8668269E-8,5.1916283E-1,-1.3768069E0,-9.4304967E-1,1.1370224E0,-8.3830744E-1,-1.497027E0,-1.1504667E0,4.4530806E-1,-1.2016627E0,1.5128151E0,-1.11576E0,6.947963E-1,2.2162585E-1,-1.5095304E0,-7.422102E-1,-1.4266088E0,-9.996702E-1,1.0406349E0,-1.4015925E0,-5.7222664E-1,1.670607E0,-1.0672426E0,-1.2641724E0,-2.9404566E-1,7.426999E-2,5.882858E-1,-3.5644653E-1,-1.5168729E0,-1.0271592E0,4.972498E-1,-4.6171328E-1,-1.2084453E0,-9.130514E-2,-1.1966536E0,1.496451E0,-5.737766E-1,-1.4308697E0,1.0930594E-2,-8.764102E-1,9.225865E-1,1.8509192E0,1.57216E-1,-1.3403593E0,2.878167E-1,2.6431194E-2,-1.2902099E0,4.4571093E-1,-1.0408392E0,1.1360537E0,-8.43876E-1,-2.9053733E-1,1.6565384E-1,-6.1245307E-2,-1.5218539E0,-3.6475497E-1,5.3797547E-2,-1.7397146E-1,3.5286406E-1,-1.4135282E-1,-4.2374402E-1,-2.731404E-1,2.2983846E-1,1.0930594E-2,-4.253266E-1,5.8081764E-1,-7.742736E-2,1.0546919E-1,-3.7906304E-1,-1.22611634E-1,-4.3498608E-1,-1.0472332E-2,-3.6662787E-1,-1.4739569E-1,4.414557E-1,5.9961987E-1,4.6136066E-2,-1.4984897E-1,4.3715024E-1,-4.1636372E-1,2.6431194E-2,3.771381E-1,-2.8830215E-1,-3.201018E-1,-4.4559908E-1,-1.9976465E-1,2.8514016E-1,-3.865583E-1,2.6431194E-2,5.594991E-1,3.441731E-2,1.6565384E-1,-3.7906304E-1,-4.5728862E-1,-1.4739569E-1],"categories":[],"categories_nodes":[],"categories_segments":[],"categories_sizes":[],"default_left":[0,0,0,0,0,0,0,0,0,0,0,0,0,0,0,0,0,0,0,0,0,0,0,0,0,0,0,0,0,0,0,0,0,0,0,0,0,0,0,0,0,0,0,0,0,0,0,0,0,0,0,0,0,0,0,0,0,0,0,0,0,0,0,0,0,0,0,0,0,0,0,0,0,0,0,0,0,0,0,0,0,0,0,0,0,0,0,0,0,0,0,0,0,0,0],"id":0,"left_children":[1,3,5,7,9,11,13,15,17,19,21,23,25,-1,27,29,31,33,35,37,39,41,43,45,47,49,-1,51,53,55,57,-1,59,61,63,65,67,69,-1,71,73,75,77,79,81,-1,83,85,87,89,91,-1,-1,-1,93,-1,-1,-1,-1,-1,-1,-1,-1,-1,-1,-1,-1,-1,-1,-1,-1,-1,-1,-1,-1,-1,-1,-1,-1,-1,-1,-1,-1,-1,-1,-1,-1,-1,-1,-1,-1,-1,-1,-1,-1],"loss_changes":[1.2536396E3,1.1517081E3,2.9835693E1,1.096116E2,7.8906287E2,3.9024452E1,1.20546875E1,3.6132263E1,4.4021423E1,1.4873718E1,3.1615076E2,8.960754E0,1.1165003E1,0E0,2.756897E0,4.825766E1,2.9406128E0,2.5906248E0,2.7258595E1,4.00325E0,1.5230782E1,1.983883E2,1.708205E1,2.385231E0,7.65131E0,1.1390314E1,0E0,2.6320934E0,2.2179565E0,2.5315819E1,1.965632E1,0E0,1.0046944E1,3.346603E0,3.409809E0,2.2292118E1,5.947261E0,1.2020264E0,0E0,7.7730465E0,5.263591E0,1.6286963E2,6.7831665E1,2.6829453E0,1.1365224E1,0E0,1.1745911E0,4.6929207E0,2.0077415E0,3.797597E0,4.395876E0,0E0,0E0,0E0,2.199707E-1,0E0,0E0,0E0,0E0,0E0,0E0,0E0,0E0,0E0,0E0,0E0,0E0,0E0,0E0,0E0,0E0,0E0,0E0,0E0,0E0,0E0,0E0,0E0,0E0,0E0,0E0,0E0,0E0,0E0,0E0,0E0,0E0,0E0,0E0,0E0,0E0,0E0,0E0,0E0,0E0],"parents":[2147483647,0,0,1,1,2,2,3,3,4,4,5,5,6,6,7,7,8,8,9,9,10,10,11,11,12,12,14,14,15,15,16,16,17,17,18,18,19,19,20,20,21,21,22,22,23,23,24,24,25,25,27,27,28,28,29,29,30,30,32,32,33,33,34,34,35,35,36,36,37,37,39,39,40,40,41,41,42,42,43,43,44,44,46,46,47,47,48,48,49,49,50,50,54,54],"right_children":[2,4,6,8,10,12,14,16,18,20,22,24,26,-1,28,30,32,34,36,38,40,42,44,46,48,50,-1,52,54,56,58,-1,60,62,64,66,68,70,-1,72,74,76,78,80,82,-1,84,86,88,90,92,-1,-1,-1,94,-1,-1,-1,-1,-1,-1,-1,-1,-1,-1,-1,-1,-1,-1,-1,-1,-1,-1,-1,-1,-1,-1,-1,-1,-1,-1,-1,-1,-1,-1,-1,-1,-1,-1,-1,-1,-1,-1,-1,-1],"split_conditions":[6.2885075E1,2.5355022E0,1.894192E2,1.4E-1,9.910051E0,8E-2,1.3146667E2,1.9742E0,1.2969576E1,8.868775E0,1.421E1,1.7459732E2,1.2426992E3,2.2162585E-1,4.7974585E2,4.593E0,1.4332621E0,1.602E0,1.172E0,4.781E0,1.2E-1,1.9436E3,1E-1,1.3154971E2,1.3494E4,8.8469E3,5.882858E-1,-7E-2,3.1E1,1.7525674E0,1.4254301E1,-4.6171328E-1,2.6E0,1.161E0,1.6E-1,2.622E0,1.728E2,-7.8E-1,1.0930594E-2,9.11E-1,4.878E3,1.793E0,2E-2,3.7190463E2,2.018E1,2.6431194E-2,2.0691E4,5.282E0,4.535E0,1.9E-1,9.04E-1,-2.9053733E-1,1.6565384E-1,-6.1245307E-2,3.0103964E2,-3.6475497E-1,5.3797547E-2,-1.7397146E-1,3.5286406E-1,-1.4135282E-1,-4.2374402E-1,-2.731404E-1,2.2983846E-1,1.0930594E-2,-4.253266E-1,5.8081764E-1,-7.742736E-2,1.0546919E-1,-3.7906304E-1,-1.22611634E-1,-4.3498608E-1,-1.0472332E-2,-3.6662787E-1,-1.4739569E-1,4.414557E-1,5.9961987E-1,4.6136066E-2,-1.4984897E-1,4.3715024E-1,-4.1636372E-1,2.6431194E-2,3.771381E-1,-2.8830215E-1,-3.201018E-1,-4.4559908E-1,-1.9976465E-1,2.8514016E-1,-3.865583E-1,2.6431194E-2,5.594991E-1,3.441731E-2,1.6565384E-1,-3.7906304E-1,-4.5728862E-1,-1.4739569E-1],"split_indices":[4,0,4,9,5,9,1,2,5,5,2,1,5,0,5,8,0,2,11,8,9,3,9,1,3,3,0,9,3,0,5,0,2,2,9,2,3,9,0,11,7,10,9,0,2,0,3,2,8,9,10,0,0,0,12,0,0,0,0,0,0,0,0,0,0,0,0,0,0,0,0,0,0,0,0,0,0,0,0,0,0,0,0,0,0,0,0,0,0,0,0,0,0,0,0],"split_type":[0,0,0,0,0,0,0,0,0,0,0,0,0,0,0,0,0,0,0,0,0,0,0,0,0,0,0,0,0,0,0,0,0,0,0,0,0,0,0,0,0,0,0,0,0,0,0,0,0,0,0,0,0,0,0,0,0,0,0,0,0,0,0,0,0,0,0,0,0,0,0,0,0,0,0,0,0,0,0,0,0,0,0,0,0,0,0,0,0,0,0,0,0,0,0],"sum_hessian":[1.7518647E3,1.2726136E3,4.7925104E2,3.778577E2,8.947559E2,8.892128E1,3.9032977E2,3.2889325E2,4.8964443E1,1.2356593E2,7.7119E2,7.5525345E1,1.3395933E1,1.8477149E0,3.8848206E2,1.3419029E2,1.9470296E2,1.4088826E1,3.4875618E1,9.284767E1,3.071826E1,7.270758E2,4.4114193E1,6.35152E1,1.2010147E1,9.700503E0,3.6954298E0,2.7715724E0,3.8571048E2,1.0924615E2,2.494415E1,1.2448979E2,7.0213165E1,2.7715724E0,1.1317254E1,2.7253796E1,7.621824E0,9.099996E1,1.8477149E0,2.5868008E1,4.8502517E0,6.494718E2,7.760403E1,3.6723335E1,7.3908596E0,1.1548219E0,6.236038E1,6.2360377E0,5.774109E0,4.388323E0,5.3121805E0,1.6167505E0,1.1548219E0,1.6167505E0,3.8409375E2,9.4464424E1,1.4781719E1,9.700503E0,1.5243648E1,1.5936541E1,5.4276627E1,1.3857862E0,1.3857862E0,1.8477149E0,9.469539E0,2.171065E1,5.5431447E0,3.4644654E0,4.1573586E0,2.0786793E0,8.892128E1,7.8527884E0,1.801522E1,1.3857862E0,3.4644654E0,5.9727386E2,5.2197945E1,5.196698E1,2.5637045E1,3.5568512E1,1.1548219E0,4.1573586E0,3.233501E0,3.2104046E1,3.0256332E1,1.8477149E0,4.388323E0,4.6192875E0,1.1548219E0,2.0786793E0,2.3096437E0,1.1548219E0,4.1573586E0,3.8270795E2,1.3857862E0],"tree_param":{"num_deleted":"0","num_feature":"15","num_nodes":"95","size_leaf_vector":"1"}},{"base_weights":[-3.067596E-2,3.3817062E-1,-1.1636717E0,-7.07876E-1,7.801984E-1,-1.2434456E0,-4.264711E-1,-9.1092104E-1,3.064448E-1,-7.811716E-1,1.060551E0,-8.9226687E-1,-1.3106686E0,1.648726E-1,-1.2483364E0,-6.0145074E-1,-1.298347E0,5.9803706E-1,-3.9488277E-1,-1.0954239E0,-6.3886815E-3,1.1509374E0,-8.053093E-1,-5.902305E-1,-1.30719E0,-9.900909E-3,-1.3156015E0,-9.3482995E-1,8.392861E-1,-3.8757828E-1,-8.322814E-2,-9.3507594E-1,1.08201385E-1,-8.416372E-2,-1.303938E0,-4.8026435E-2,1.207458E0,-1.1429937E0,6.346431E-2,3.5560706E-1,-1.3621763E0,6.8222016E-1,1.4381409E0,-1.0890071E0,3.52348E-1,-1.2125341E0,-2.644328E-1,-6.468441E-2,-4.0305236E-1,-5.0541572E-2,-1.3210044E0,-3.685619E-2,-3.5552043E-1,1.0875934E0,-2.801917E-1,-1.060728E-1,-3.3857146E-1,5.106341E-1,-5.44581E-2,-1.1204751E-1,-3.931899E-1,-2.3602577E-1,1.7333788E-1,4.2507106E-1,-1.106233E-1,-3.6345592E-1,-1.2795892E-1,-1.4243981E-1,2.446988E-1,2.1531819E-1,-3.8419598E-1,-7.053585E-2,-4.4527516E-1,2.5256795E-1,-1.6894278E-1,4.494745E-1,-1.2875846E-1,-3.615842E-1,-2.7396834E-2,3.091091E-1,-2.4097328E-1,-6.0942344E-2,-3.845435E-1,7.7493503E-3,-3.21825E-1,-1.4546278E-1,-3.9781943E-1,1.9583578E-1,-2.243752E-1,5.1170176E-1,1.0621119E-1],"categories":[],"categories_nodes":[],"categories_segments":[],"categories_sizes":[],"default_left":[0,0,0,0,0,0,0,0,0,0,0,0,0,0,0,0,0,0,0,0,0,0,0,0,0,0,0,0,0,0,0,0,0,0,0,0,0,0,0,0,0,0,0,0,0,0,0,0,0,0,0,0,0,0,0,0,0,0,0,0,0,0,0,0,0,0,0,0,0,0,0,0,0,0,0,0,0,0,0,0,0,0,0,0,0,0,0,0,0,0,0],"id":1,"left_children":[1,3,5,7,9,11,13,15,17,19,21,23,25,27,29,31,33,35,-1,37,39,41,43,45,47,-1,49,51,53,-1,-1,55,57,-1,59,61,63,65,67,69,71,73,75,77,79,81,83,-1,-1,-1,85,87,-1,89,-1,-1,-1,-1,-1,-1,-1,-1,-1,-1,-1,-1,-1,-1,-1,-1,-1,-1,-1,-1,-1,-1,-1,-1,-1,-1,-1,-1,-1,-1,-1,-1,-1,-1,-1,-1,-1],"loss_changes":[6.996585E2,5.845872E2,2.3650635E1,7.766066E1,3.897013E2,7.5770874E0,2.0458334E1,3.6783875E1,3.079369E1,3.3058983E1,1.2801514E2,7.0811195E0,1.9031982E0,1.941328E1,3.8451195E-1,4.1780277E1,4.2099E-1,2.1493757E1,0E0,5.398613E0,2.0211403E1,9.583069E1,1.2012003E1,7.4011574E0,7.2415924E-1,0E0,1.684021E0,2.2081938E0,8.10324E0,0E0,0E0,1.30861435E1,2.6720205E1,0E0,3.653717E-1,1.3116775E1,9.784077E0,4.0421524E0,2.3132017E0,2.0186275E1,8.448944E-1,5.518599E1,5.0592773E1,3.217144E0,6.879819E0,6.353035E-1,6.1930737E0,0E0,0E0,0E0,6.519165E-1,2.0653453E0,0E0,6.007225E0,0E0,0E0,0E0,0E0,0E0,0E0,0E0,0E0,0E0,0E0,0E0,0E0,0E0,0E0,0E0,0E0,0E0,0E0,0E0,0E0,0E0,0E0,0E0,0E0,0E0,0E0,0E0,0E0,0E0,0E0,0E0,0E0,0E0,0E0,0E0,0E0,0E0],"parents":[2147483647,0,0,1,1,2,2,3,3,4,4,5,5,6,6,7,7,8,8,9,9,10,10,11,11,12,12,13,13,14,14,15,15,16,16,17,17,19,19,20,20,21,21,22,22,23,23,24,24,26,26,27,27,28,28,31,31,32,32,34,34,35,35,36,36,37,37,38,38,39,39,40,40,41,41,42,42,43,43,44,44,45,45,46,46,50,50,51,51,53,53],"right_children":[2,4,6,8,10,12,14,16,18,20,22,24,26,28,30,32,34,36,-1,38,40,42,44,46,48,-1,50,52,54,-1,-1,56,58,-1,60,62,64,66,68,70,72,74,76,78,80,82,84,-1,-1,-1,86,88,-1,90,-1,-1,-1,-1,-1,-1,-1,-1,-1,-1,-1,-1,-1,-1,-1,-1,-1,-1,-1,-1,-1,-1,-1,-1,-1,-1,-1,-1,-1,-1,-1,-1,-1,-1,-1,-1,-1],"split_conditions":[6.2885075E1,2.9919481E0,8E-2,1.2E-1,1.0820939E1,1.7806236E2,2.3647E4,2.6E0,3.435E0,9.533497E0,1.421E1,1.5209E1,1.3146667E2,2.1243E3,4.58E0,1.5195292E0,9.266E0,1.4332621E0,-3.9488277E-1,4.721E0,5.3681116E0,-8E-2,8E-2,-2.8E-1,4.352E3,-9.900909E-3,3.1E1,2.9699013E1,7.82E2,-3.8757828E-1,-8.322814E-2,5.275E3,4.5E3,-8.416372E-2,6.2E1,1.620387E1,1.8403E3,1.2E-1,1.5911E1,2.972927E2,2.87392E2,2.1243E3,1.552E0,2.269313E2,3.4E1,2.853639E2,1.7525638E0,-6.468441E-2,-4.0305236E-1,-5.0541572E-2,4.7974585E2,5.78E3,-3.5552043E-1,1.0939E4,-2.801917E-1,-1.060728E-1,-3.3857146E-1,5.106341E-1,-5.44581E-2,-1.1204751E-1,-3.931899E-1,-2.3602577E-1,1.7333788E-1,4.2507106E-1,-1.106233E-1,-3.6345592E-1,-1.2795892E-1,-1.4243981E-1,2.446988E-1,2.1531819E-1,-3.8419598E-1,-7.053585E-2,-4.4527516E-1,2.5256795E-1,-1.6894278E-1,4.494745E-1,-1.2875846E-1,-3.615842E-1,-2.7396834E-2,3.091091E-1,-2.4097328E-1,-6.0942344E-2,-3.845435E-1,7.7493503E-3,-3.21825E-1,-1.4546278E-1,-3.9781943E-1,1.9583578E-1,-2.243752E-1,5.1170176E-1,1.0621119E-1],"split_indices":[4,0,9,9,5,4,3,2,2,5,2,14,1,3,8,0,14,0,0,8,4,9,9,9,7,0,3,0,6,0,0,7,7,0,6,5,3,9,14,12,12,3,11,1,6,12,10,0,0,0,5,7,0,3,0,0,0,0,0,0,0,0,0,0,0,0,0,0,0,0,0,0,0,0,0,0,0,0,0,0,0,0,0,0,0,0,0,0,0,0,0],"split_type":[0,0,0,0,0,0,0,0,0,0,0,0,0,0,0,0,0,0,0,0,0,0,0,0,0,0,0,0,0,0,0,0,0,0,0,0,0,0,0,0,0,0,0,0,0,0,0,0,0,0,0,0,0,0,0,0,0,0,0,0,0,0,0,0,0,0,0,0,0,0,0,0,0,0,0,0,0,0,0,0,0,0,0,0,0,0,0,0,0,0,0],"sum_hessian":[1.6722766E3,1.2621013E3,4.1017532E2,3.7472452E2,8.873768E2,3.6950388E2,4.0671432E1,3.12309E2,6.241554E1,1.3480725E2,7.525695E2,6.1659992E1,3.078439E2,2.4117758E1,1.6553677E1,1.7504109E2,1.3726788E2,5.3443546E1,8.971995E0,9.5612816E1,3.9194443E1,7.1816327E2,3.440625E1,3.708621E1,2.4573782E1,1.2135433E0,3.0663034E2,9.021352E0,1.5096405E1,1.5525965E1,1.0277108E0,1.1884938E2,5.6191715E1,1.0295103E0,1.3623837E2,2.6389025E1,2.705452E1,9.185605E1,3.7567694E0,3.1517082E1,7.6773596E0,2.7414038E2,4.440229E2,2.7681793E1,6.7244563E0,1.1808725E1,2.5277483E1,1.0146348E0,2.3559147E1,1.5882885E0,3.0504205E2,2.2161243E0,6.8052278E0,1.3581301E1,1.5151043E0,3.0379406E1,8.846998E1,7.893198E0,4.8298515E1,1.3789749E0,1.348594E2,1.19848175E1,1.4404207E1,2.3970402E1,3.0841186E0,8.320678E1,8.649264E0,2.404747E0,1.3520223E0,2.626561E1,5.2514715E0,1.0362412E0,6.6411185E0,2.4327328E2,3.0867077E1,4.303675E2,1.36553955E1,2.4606045E1,3.0757477E0,4.3062415E0,2.4182148E0,1.0109653E0,1.079776E1,1.931101E1,5.966474E0,2.4174883E0,3.0262457E2,1.1666105E0,1.0495139E0,6.651596E0,6.929705E0],"tree_param":{"num_deleted":"0","num_feature":"15","num_nodes":"91","size_leaf_vector":"1"}},{"base_weights":[-4.1115988E-2,2.7774796E-1,-9.3552876E-1,-8.8412976E-1,5.41937E-1,-4.5162064E-1,-1.1402562E0,-1.2053266E0,-6.0809815E-1,-2.1274155E-1,8.8202375E-1,-8.1185126E-1,1.9108063E-1,1.828771E-1,-1.1562725E0,5.7194076E-2,-1.2245362E0,-1.0461049E0,-6.6984884E-2,1.2227275E-1,-1.0775899E0,9.4581956E-1,-9.3812966E-1,-9.974434E-1,5.6030355E-2,-7.4032533E-1,5.268913E-1,1.3445473E-1,-1.1643388E0,-3.7785587E-1,-8.501919E-1,-1.080413E0,4.6081323E-2,3.6393985E-1,-1.1079456E0,-3.6185014E-1,7.365342E-1,-5.563867E-1,-1.3295876E0,-1.4486681E-1,1.0355293E0,-2.8326288E-2,-3.5186538E-1,-1.0595571E0,3.9261863E-1,4.389568E-1,-1.0231422E0,-1.1141336E0,-2.3350844E-1,7.4401635E-1,-3.4776047E-1,-4.1714907E-2,-1.1696693E0,-3.0975142E-1,2.560377E-2,-3.3262002E-1,-1.3047453E-2,2.1303985E-1,-3.7561163E-1,-3.5661408E-1,-1.8222878E-2,-1.6521007E-1,2.7737162E-1,3.131271E-1,-2.9834864E-1,8.786732E-2,-3.2484892E-1,-8.3271354E-2,-4.0362373E-1,2.7870753E-1,-1.5673253E-1,-3.3238488E-1,3.199103E-1,-1.9423129E-1,3.1837496E-1,-2.4732888E-1,-3.978471E-1,3.1682906E-1,-1.2941982E-1,-2.5040138E-1,2.9980853E-1,-3.523083E-1,-8.907749E-2,-3.6512426E-1,-8.939473E-2,-2.8392407E-1,1.175567E-1,4.418954E-1,4.6415992E-2,-2.8906605E-1,1.7930347E-1,-3.587007E-1,-2.569324E-1],"categories":[],"categories_nodes":[],"categories_segments":[],"categories_sizes":[],"default_left":[0,0,0,0,0,0,0,0,0,0,0,0,0,0,0,0,0,0,0,0,0,0,0,0,0,0,0,0,0,0,0,0,0,0,0,0,0,0,0,0,0,0,0,0,0,0,0,0,0,0,0,0,0,0,0,0,0,0,0,0,0,0,0,0,0,0,0,0,0,0,0,0,0,0,0,0,0,0,0,0,0,0,0,0,0,0,0,0,0,0,0,0,0],"id":2,"left_children":[1,3,5,7,9,11,13,15,17,19,21,23,25,-1,27,-1,29,31,33,35,37,39,41,43,45,47,49,-1,51,-1,53,55,-1,57,59,61,63,65,67,69,71,73,-1,75,77,79,81,83,85,87,89,-1,91,-1,-1,-1,-1,-1,-1,-1,-1,-1,-1,-1,-1,-1,-1,-1,-1,-1,-1,-1,-1,-1,-1,-1,-1,-1,-1,-1,-1,-1,-1,-1,-1,-1,-1,-1,-1,-1,-1,-1,-1],"loss_changes":[4.325637E2,3.437196E2,3.8974335E1,1.7667313E1,2.3417435E2,2.7974253E1,8.536682E0,2.7783813E0,2.6862423E1,8.24214E1,7.3885895E1,1.2489132E1,1.414209E1,0E0,4.110016E0,0E0,1.5689087E-1,2.7479706E0,2.3685291E1,6.141142E1,9.689049E0,5.9626953E1,4.620737E0,5.9112396E0,6.4599957E0,2.025989E0,6.506831E0,0E0,1.3465576E0,0E0,1.9795208E0,1.7464066E0,0E0,2.1845472E1,1.2339439E0,2.8607216E1,4.9409157E1,1.2656066E1,5.056381E-1,1.9573095E1,3.8316895E1,4.3931904E0,0E0,2.7425613E0,2.3428237E0,8.996455E0,1.0262537E-1,1.9856453E-1,3.218536E0,1.1231523E1,4.7819552E0,0E0,1.2121582E0,0E0,0E0,0E0,0E0,0E0,0E0,0E0,0E0,0E0,0E0,0E0,0E0,0E0,0E0,0E0,0E0,0E0,0E0,0E0,0E0,0E0,0E0,0E0,0E0,0E0,0E0,0E0,0E0,0E0,0E0,0E0,0E0,0E0,0E0,0E0,0E0,0E0,0E0,0E0,0E0],"parents":[2147483647,0,0,1,1,2,2,3,3,4,4,5,5,6,6,7,7,8,8,9,9,10,10,11,11,12,12,14,14,16,16,17,17,18,18,19,19,20,20,21,21,22,22,23,23,24,24,25,25,26,26,28,28,30,30,31,31,33,33,34,34,35,35,36,36,37,37,38,38,39,39,40,40,41,41,43,43,44,44,45,45,46,46,47,47,48,48,49,49,50,50,52,52],"right_children":[2,4,6,8,10,12,14,16,18,20,22,24,26,-1,28,-1,30,32,34,36,38,40,42,44,46,48,50,-1,52,-1,54,56,-1,58,60,62,64,66,68,70,72,74,-1,76,78,80,82,84,86,88,90,-1,92,-1,-1,-1,-1,-1,-1,-1,-1,-1,-1,-1,-1,-1,-1,-1,-1,-1,-1,-1,-1,-1,-1,-1,-1,-1,-1,-1,-1,-1,-1,-1,-1,-1,-1,-1,-1,-1,-1,-1,-1],"split_conditions":[3.0843128E1,1.0820939E1,1.6261552E2,3.7965436E0,3.7965436E0,1.5561555E2,1.3146667E2,3.439E3,8.868775E0,3.158E0,1.68109E1,1E-1,-2.4E-1,1.828771E-1,3.5652017E2,5.7194076E-2,1.0416963E1,4.781E0,9.35E0,-2E-2,4.237E0,-3.6E-1,1E1,4.987396E1,2.079E0,2.8071524E2,1.5447E1,1.3445473E-1,3.1E1,-3.7785587E-1,1.8066314E0,5.067232E1,4.6081323E-2,2.9762936E2,1.2E-1,4.623E0,1.195E0,1.737E0,3.1138513E0,2.8788733E2,3.284E0,5.973E3,-3.5186538E-1,1.5001E1,2.8881714E2,2.7966611E0,4.376333E1,9.745E0,-3.8E-1,9.98E-1,2E-2,-4.1714907E-2,8E-2,-3.0975142E-1,2.560377E-2,-3.3262002E-1,-1.3047453E-2,2.1303985E-1,-3.7561163E-1,-3.5661408E-1,-1.8222878E-2,-1.6521007E-1,2.7737162E-1,3.131271E-1,-2.9834864E-1,8.786732E-2,-3.2484892E-1,-8.3271354E-2,-4.0362373E-1,2.7870753E-1,-1.5673253E-1,-3.3238488E-1,3.199103E-1,-1.9423129E-1,3.1837496E-1,-2.4732888E-1,-3.978471E-1,3.1682906E-1,-1.2941982E-1,-2.5040138E-1,2.9980853E-1,-3.523083E-1,-8.907749E-2,-3.6512426E-1,-8.939473E-2,-2.8392407E-1,1.175567E-1,4.418954E-1,4.6415992E-2,-2.8906605E-1,1.7930347E-1,-3.587007E-1,-2.569324E-1],"split_indices":[4,5,4,0,0,1,1,7,5,2,2,9,9,0,5,0,5,8,2,9,8,9,6,0,10,5,14,0,3,0,0,13,0,12,9,8,11,10,4,12,8,7,0,14,12,0,13,2,9,11,9,0,9,0,0,0,0,0,0,0,0,0,0,0,0,0,0,0,0,0,0,0,0,0,0,0,0,0,0,0,0,0,0,0,0,0,0,0,0,0,0,0,0],"split_type":[0,0,0,0,0,0,0,0,0,0,0,0,0,0,0,0,0,0,0,0,0,0,0,0,0,0,0,0,0,0,0,0,0,0,0,0,0,0,0,0,0,0,0,0,0,0,0,0,0,0,0,0,0,0,0,0,0,0,0,0,0,0,0,0,0,0,0,0,0,0,0,0,0,0,0,0,0,0,0,0,0,0,0,0,0,0,0,0,0,0,0,0,0],"sum_hessian":[1.5148131E3,1.11721E3,3.9760312E2,2.0653638E2,9.1067365E2,1.1915825E2,2.784449E2,9.390257E1,1.12633804E2,2.8301538E2,6.2765826E2,7.619062E1,4.2967625E1,2.189364E0,2.7625552E2,1.1534883E0,9.2749084E1,6.17316E1,5.09022E1,2.0461337E2,7.8402E1,6.068681E2,2.079016E1,6.264502E1,1.3545606E1,1.1067146E1,3.1900478E1,1.1089609E0,2.7514658E2,8.265975E1,1.0089332E1,6.0112015E1,1.6195868E0,3.6459503E1,1.4442698E1,1.14657974E2,8.995541E1,2.659789E1,5.180411E1,4.607503E1,5.60793E2,4.4940243E0,1.6296135E1,6.0193104E1,2.451916E0,1.0435862E1,3.1097445E0,5.679714E0,5.3874316E0,2.5675983E1,6.2244935E0,1.563171E0,2.735834E2,8.357096E0,1.732236E0,5.844647E1,1.6655467E0,3.0488476E1,5.971026E0,1.3283075E1,1.1596218E0,1.0047927E2,1.41786995E1,7.673375E1,1.3221659E1,1.0347903E1,1.6249989E1,1.0424644E0,5.0761646E1,1.1605725E1,3.4469303E1,7.4583707E0,5.5333466E2,3.124457E0,1.3695675E0,3.415898E1,2.6034122E1,1.2022512E0,1.2496647E0,3.039227E0,7.3966346E0,2.0630639E0,1.0466807E0,4.607315E0,1.0723991E0,2.277611E0,3.1098206E0,1.0807448E1,1.4868536E1,3.7577782E0,2.4667153E0,2.5001358E2,2.356981E1],"tree_param":{"num_deleted":"0","num_feature":"15","num_nodes":"93","size_leaf_vector":"1"}},{"base_weights":[-4.615936E-2,1.8202014E-1,-9.258864E-1,-6.533992E-1,4.157794E-1,-6.1915624E-1,-1.1425701E0,-9.9760956E-1,-3.2180056E-1,-8.435888E-1,5.403076E-1,-1.0457594E0,-1.08848706E-1,2.322072E-2,-3.4581643E-1,3.6660008E-2,-1.0289302E0,1.1011343E-2,-9.9086356E-1,-5.5235076E-1,-1.0872641E0,3.190015E-1,1.0762279E0,-4.3482283E-1,-3.4165877E-1,-6.8941915E-1,3.3621812E-1,5.9056085E-1,-2.2648785E-1,-5.19907E-1,-1.0706921E0,2.735292E-1,-9.5827585E-1,4.3559182E-1,-1.1037616E0,-1.0174621E0,-2.8485894E-1,-3.422138E-1,-4.2280746E-1,4.465934E-1,-7.270449E-1,1.1194596E0,-4.2902276E-1,-9.4506717E-1,5.2285546E-1,-8.437871E-1,5.698477E-2,1.0362833E0,-2.361168E-3,-6.1619576E-2,3.245481E-1,-3.088731E-1,4.713952E-2,-3.3502558E-1,-2.1279086E-1,1.6057517E-1,-2.4237868E-1,1.4216857E-3,-3.2566783E-1,3.116844E-1,-1.7072661E-1,-3.6677858E-1,-8.5235566E-2,-3.3378106E-1,-1.5527523E-1,5.507365E-2,-2.0369647E-1,1.7408049E-1,-2.7440673E-1,2.735871E-1,6.262555E-2,-3.34681E-2,-3.2730886E-1,3.4462434E-1,-2.5512183E-1,-4.1825622E-2,-3.1798247E-1,-1.267156E-1,4.3894917E-1,-3.1921747E-1,-1.0324955E-1,2.5002757E-1,-1.2860933E-1,4.5412576E-1,-1.747161E-2,1.10218346E-1,-1.8342948E-1],"categories":[],"categories_nodes":[],"categories_segments":[],"categories_sizes":[],"default_left":[0,0,0,0,0,0,0,0,0,0,0,0,0,0,0,0,0,0,0,0,0,0,0,0,0,0,0,0,0,0,0,0,0,0,0,0,0,0,0,0,0,0,0,0,0,0,0,0,0,0,0,0,0,0,0,0,0,0,0,0,0,0,0,0,0,0,0,0,0,0,0,0,0,0,0,0,0,0,0,0,0,0,0,0,0,0,0],"id":3,"left_children":[1,3,5,7,9,11,13,15,17,19,21,23,25,-1,-1,27,29,31,33,35,37,39,41,43,-1,45,47,49,-1,51,53,55,57,59,61,63,65,-1,67,69,71,73,-1,75,77,79,81,83,85,-1,-1,-1,-1,-1,-1,-1,-1,-1,-1,-1,-1,-1,-1,-1,-1,-1,-1,-1,-1,-1,-1,-1,-1,-1,-1,-1,-1,-1,-1,-1,-1,-1,-1,-1,-1,-1,-1],"loss_changes":[2.7167496E2,2.1017122E2,1.7817947E1,2.6545494E1,1.3225981E2,2.5481533E1,2.097458E0,3.763649E0,2.7035263E1,4.7941628E0,9.0438126E1,3.140686E0,1.43530445E1,0E0,0E0,2.3516192E0,1.8172455E0,2.1136894E1,6.97517E0,4.27133E0,9.508858E-1,7.281668E1,2.5793823E1,5.415196E0,0E0,2.818325E0,7.4942875E0,1.4415057E0,0E0,3.7543435E0,9.1007996E-1,1.892395E1,2.175415E0,2.8187478E0,3.3199997E0,4.2266846E-2,4.678274E0,0E0,2.7971392E0,5.345945E1,1.3191862E1,1.367276E1,0E0,4.9324942E-1,4.3016014E0,1.8332758E0,2.264315E0,5.4739447E0,5.247148E0,0E0,0E0,0E0,0E0,0E0,0E0,0E0,0E0,0E0,0E0,0E0,0E0,0E0,0E0,0E0,0E0,0E0,0E0,0E0,0E0,0E0,0E0,0E0,0E0,0E0,0E0,0E0,0E0,0E0,0E0,0E0,0E0,0E0,0E0,0E0,0E0,0E0,0E0],"parents":[2147483647,0,0,1,1,2,2,3,3,4,4,5,5,6,6,7,7,8,8,9,9,10,10,11,11,12,12,15,15,16,16,17,17,18,18,19,19,20,20,21,21,22,22,23,23,25,25,26,26,27,27,29,29,30,30,31,31,32,32,33,33,34,34,35,35,36,36,38,38,39,39,40,40,41,41,43,43,44,44,45,45,46,46,47,47,48,48],"right_children":[2,4,6,8,10,12,14,16,18,20,22,24,26,-1,-1,28,30,32,34,36,38,40,42,44,-1,46,48,50,-1,52,54,56,58,60,62,64,66,-1,68,70,72,74,-1,76,78,80,82,84,86,-1,-1,-1,-1,-1,-1,-1,-1,-1,-1,-1,-1,-1,-1,-1,-1,-1,-1,-1,-1,-1,-1,-1,-1,-1,-1,-1,-1,-1,-1,-1,-1,-1,-1,-1,-1,-1,-1],"split_conditions":[6.2885075E1,2.2082963E0,2.3647E4,1.4519956E1,9.533497E0,2.1243E3,3.844E3,5.09E-1,5.867E2,4.409803E0,1E-1,1.4800751E1,-1E-1,2.322072E-2,-3.4581643E-1,0E0,2.8642703E2,2.999E0,3.746E3,4.12086E1,9.068564E0,1.737E0,6.508E3,4.484E0,-3.4165877E-1,1.956621E2,9.99E-1,1.5753E1,-2.2648785E-1,1.1423345E1,1.3220459E1,1.123E0,5.78E2,1.8403E3,1.7040898E2,9.068564E0,9.28E-1,-3.422138E-1,2.9116953E2,2.8985913E2,2.354E2,7.7E0,-4.2902276E-1,2.8926874E2,8.480312E0,-2.2E-1,2.8985913E2,1.5001E1,1.0939E4,-6.1619576E-2,3.245481E-1,-3.088731E-1,4.713952E-2,-3.3502558E-1,-2.1279086E-1,1.6057517E-1,-2.4237868E-1,1.4216857E-3,-3.2566783E-1,3.116844E-1,-1.7072661E-1,-3.6677858E-1,-8.5235566E-2,-3.3378106E-1,-1.5527523E-1,5.507365E-2,-2.0369647E-1,1.7408049E-1,-2.7440673E-1,2.735871E-1,6.262555E-2,-3.34681E-2,-3.2730886E-1,3.4462434E-1,-2.5512183E-1,-4.1825622E-2,-3.1798247E-1,-1.267156E-1,4.3894917E-1,-3.1921747E-1,-1.0324955E-1,2.5002757E-1,-1.2860933E-1,4.5412576E-1,-1.747161E-2,1.10218346E-1,-1.8342948E-1],"split_indices":[4,0,3,5,5,3,7,10,3,4,9,0,9,0,0,9,12,2,7,13,5,10,7,8,0,1,10,14,0,5,5,11,6,3,1,5,11,0,12,12,3,10,0,12,0,9,12,14,3,0,0,0,0,0,0,0,0,0,0,0,0,0,0,0,0,0,0,0,0,0,0,0,0,0,0,0,0,0,0,0,0,0,0,0,0,0,0],"split_type":[0,0,0,0,0,0,0,0,0,0,0,0,0,0,0,0,0,0,0,0,0,0,0,0,0,0,0,0,0,0,0,0,0,0,0,0,0,0,0,0,0,0,0,0,0,0,0,0,0,0,0,0,0,0,0,0,0,0,0,0,0,0,0,0,0,0,0,0,0,0,0,0,0,0,0,0,0,0,0,0,0,0,0,0,0,0,0],"sum_hessian":[1.3515569E3,1.0738259E3,2.7773087E2,2.3438284E2,8.394431E2,1.1657237E2,1.6115851E2,1.1401895E2,1.20363884E2,7.501663E1,7.644265E2,6.2922012E1,5.365036E1,1.2752583E0,1.5988324E2,3.3463216E0,1.1067263E2,8.103714E1,3.9326748E1,3.5661327E1,3.9355305E1,5.4214514E2,2.2228133E2,9.070733E0,5.385128E1,2.3042887E1,3.0607473E1,2.1181931E0,1.2281284E0,9.411233E0,1.012614E2,6.433163E1,1.6705515E1,2.6746404E0,3.6652107E1,1.1997141E1,2.3664186E1,3.5761875E1,3.5934324E0,4.837167E2,5.8428467E1,2.1905612E2,3.2251923E0,5.9263716E0,3.144361E0,1.8985847E1,4.057039E0,9.305738E0,2.1301735E1,1.0304828E0,1.0877104E0,5.0722065E0,4.3390265E0,8.796047E1,1.3300928E1,5.2203125E1,1.2128498E1,2.0626302E0,1.4642885E1,1.6497707E0,1.0248698E0,3.1581703E1,5.070403E0,9.049085E0,2.9480555E0,1.1056879E1,1.2607307E1,1.1232139E0,2.4702187E0,1.6264647E2,3.2107022E2,2.219836E1,3.6230106E1,2.1625763E2,2.798505E0,1.0158156E0,4.910556E0,1.8427482E0,1.3016129E0,1.2392549E1,6.593299E0,1.285683E0,2.7713556E0,6.212569E0,3.093169E0,1.3501819E1,7.799916E0],"tree_param":{"num_deleted":"0","num_feature":"15","num_nodes":"87","size_leaf_vector":"1"}},{"base_weights":[-4.8153963E-2,9.293823E-2,-1.1045256E0,3.3113244E-1,-5.028734E-1,-3.6588E-2,-1.1143309E0,-4.2908645E-1,4.6895367E-1,-2.2864787E-1,-9.640328E-1,-1.28806E-1,-3.3630794E-1,-9.761117E-2,-1.0083894E0,5.592469E-1,-4.7452584E-1,-7.841756E-1,4.875833E-2,-1.0442728E0,-3.4693205E-1,-4.5015988E-1,3.943824E-1,-1.0585039E0,-1.8944873E-1,6.6627145E-1,-1.8035777E-1,-1.5678246E0,-9.139471E-2,2.8164846E-1,-9.135396E-1,2.6165634E-1,-9.478541E-1,-7.044652E-2,-1.065902E0,-8.9563346E-1,6.2054425E-2,-2.1189563E-1,6.1406557E-2,-2.3266368E-1,1.8336874E-1,-3.3934745E-1,-1.3518776E-1,-2.1452555E-1,1.6931325E-1,2.3022483E-1,1.2983342E-2,-1.3745229E-1,1.4179574E-1,-4.9924383E-1,-6.859008E-2,1.1531611E-1,-1.8281801E-1,-1.7795053E-1,3.049376E-1,-2.9898813E-1,-8.097488E-2,-2.6486194E-1,1.3311799E-1,-3.171644E-1,-1.19584175E-2,-1.757087E-1,1.2832285E-1,-3.22648E-1,-2.104265E-2,-6.530304E-2,-3.0165023E-1,1.6029833E-1,-2.5722033E-1],"categories":[],"categories_nodes":[],"categories_segments":[],"categories_sizes":[],"default_left":[0,0,0,0,0,0,0,0,0,0,0,0,0,0,0,0,0,0,0,0,0,0,0,0,0,0,0,0,0,0,0,0,0,0,0,0,0,0,0,0,0,0,0,0,0,0,0,0,0,0,0,0,0,0,0,0,0,0,0,0,0,0,0,0,0,0,0,0,0],"id":4,"left_children":[1,3,5,7,9,-1,11,13,15,17,19,-1,-1,21,23,25,27,29,31,33,35,37,39,41,43,45,47,49,51,53,55,57,59,61,63,65,67,-1,-1,-1,-1,-1,-1,-1,-1,-1,-1,-1,-1,-1,-1,-1,-1,-1,-1,-1,-1,-1,-1,-1,-1,-1,-1,-1,-1,-1,-1,-1,-1],"loss_changes":[1.8106715E2,1.5230605E2,1.2431488E0,8.0505455E1,3.8548683E1,0E0,1.6807556E-1,2.258896E1,5.5579224E1,2.986708E1,5.2829666E0,0E0,0E0,1.3404225E1,1.5598183E0,4.7063385E1,2.3838722E1,9.153679E0,2.7838755E1,2.0394745E0,3.3355682E0,7.6747017E0,8.685004E0,1.2657471E0,1.8662609E0,3.2625656E1,1.395993E1,1.5279922E0,1.094464E1,5.583627E0,2.8206215E0,2.2882967E1,2.2521858E0,1.0853103E0,8.618698E-1,2.5087643E-1,4.5005636E0,0E0,0E0,0E0,0E0,0E0,0E0,0E0,0E0,0E0,0E0,0E0,0E0,0E0,0E0,0E0,0E0,0E0,0E0,0E0,0E0,0E0,0E0,0E0,0E0,0E0,0E0,0E0,0E0,0E0,0E0,0E0,0E0],"parents":[2147483647,0,0,1,1,2,2,3,3,4,4,6,6,7,7,8,8,9,9,10,10,13,13,14,14,15,15,16,16,17,17,18,18,19,19,20,20,21,21,22,22,23,23,24,24,25,25,26,26,27,27,28,28,29,29,30,30,31,31,32,32,33,33,34,34,35,35,36,36],"right_children":[2,4,6,8,10,-1,12,14,16,18,20,-1,-1,22,24,26,28,30,32,34,36,38,40,42,44,46,48,50,52,54,56,58,60,62,64,66,68,-1,-1,-1,-1,-1,-1,-1,-1,-1,-1,-1,-1,-1,-1,-1,-1,-1,-1,-1,-1,-1,-1,-1,-1,-1,-1,-1,-1,-1,-1,-1,-1],"split_conditions":[2.3647E4,4.1901535E2,3.844E3,1.1423345E1,3.0189E0,-3.6588E-2,9.954E0,4.7622185E0,6.309E3,-1.8E-1,1.2E-1,-1.28806E-1,-3.3630794E-1,-2E-2,1.5858E1,2.8045E3,2.9003E0,4.544E3,1.172E0,1.0326E1,1.5778008E0,1.442469E2,7.950458E0,1.2E-1,8.224546E0,2.972927E2,8E-2,1.883E0,5.369E2,1.3255624E2,4.825929E1,1.0916952E1,2.7678E0,1.5778008E0,5.9137384E2,3.5778859E0,5.966E0,-2.1189563E-1,6.1406557E-2,-2.3266368E-1,1.8336874E-1,-3.3934745E-1,-1.3518776E-1,-2.1452555E-1,1.6931325E-1,2.3022483E-1,1.2983342E-2,-1.3745229E-1,1.4179574E-1,-4.9924383E-1,-6.859008E-2,1.1531611E-1,-1.8281801E-1,-1.7795053E-1,3.049376E-1,-2.9898813E-1,-8.097488E-2,-2.6486194E-1,1.3311799E-1,-3.171644E-1,-1.19584175E-2,-1.757087E-1,1.2832285E-1,-3.22648E-1,-2.104265E-2,-6.530304E-2,-3.0165023E-1,1.6029833E-1,-2.5722033E-1],"split_indices":[3,6,7,5,2,0,14,4,7,9,9,0,0,9,14,3,2,7,11,14,0,1,5,9,5,12,9,11,3,1,13,5,2,0,0,4,2,0,0,0,0,0,0,0,0,0,0,0,0,0,0,0,0,0,0,0,0,0,0,0,0,0,0,0,0,0,0,0,0],"split_type":[0,0,0,0,0,0,0,0,0,0,0,0,0,0,0,0,0,0,0,0,0,0,0,0,0,0,0,0,0,0,0,0,0,0,0,0,0,0,0,0,0,0,0,0,0,0,0,0,0,0,0,0,0,0,0,0,0,0,0,0,0,0,0,0,0,0,0,0,0],"sum_hessian":[1.2131538E3,1.0710175E3,1.4213632E2,7.654495E2,3.05568E2,1.5371952E0,1.4059912E2,1.1714838E2,6.4830115E2,1.9255952E2,1.1300848E2,1.9914346E0,1.386077E2,7.525576E1,4.1892612E1,5.92048E2,5.6253136E1,6.352297E1,1.2903654E2,9.939251E1,1.3615963E1,4.3890266E1,3.1365498E1,3.920119E1,2.6914203E0,5.172923E2,7.475569E1,1.3795192E1,4.2457947E1,6.7481446E0,5.6774822E1,1.0693118E2,2.2105364E1,2.2520862E0,9.714043E1,5.306632E0,8.309331E0,3.1492615E1,1.2397652E1,4.501674E0,2.6863823E1,3.4247112E1,4.95408E0,1.6159943E0,1.075426E0,4.4483966E2,7.245265E1,5.2653263E1,2.2102427E1,1.264318E1,1.152012E0,2.2265251E1,2.0192694E1,3.1685894E0,3.5795555E0,4.97978E1,6.9770265E0,1.4147586E1,9.27836E1,1.958247E1,2.5228949E0,1.0207419E0,1.2313442E0,9.613437E1,1.0060543E0,1.1558025E0,4.15083E0,5.766344E0,2.5429864E0],"tree_param":{"num_deleted":"0","num_feature":"15","num_nodes":"69","size_leaf_vector":"1"}},{"base_weights":[-4.816383E-2,6.494591E-2,-1.0524223E0,-1.17903955E-1,5.938451E-1,-3.0258795E-2,-1.0646722E0,1.6968785E-1,-4.821253E-1,7.279983E-1,-2.7023021E-2,-1.112001E-1,-3.2186216E-1,2.8610006E-1,-7.960348E-1,-2.250749E-1,-1.0801858E0,-8.927053E-2,8.3254874E-1,-5.800247E-1,4.098022E-1,-9.5659727E-1,3.617733E-1,-1.0139625E0,-1.5984431E-1,-7.8034997E-1,2.4536924E-2,-1.2855248E0,-8.1521356E-1,4.0054044E-1,-9.363904E-1,8.999001E-1,-5.3864694E-1,-8.3422154E-1,6.8442845E-1,-7.44232E-1,7.1328294E-1,-3.1591862E-2,-3.772836E-1,1.3535234E-1,-1.1909703E-1,-1.2579702E-1,-3.3789706E-1,-3.0583858E-1,1.1662715E-1,-2.812263E-1,-4.7002163E-2,1.8332687E-1,-4.703035E-2,-5.2365E-1,-2.9839256E-1,-1.22189395E-1,-3.1280324E-1,2.6354453E-1,-1.12272196E-1,-3.2979375E-1,3.0496107E-2,2.7682766E-1,-1.4689791E-1,1.3674852E-1,-3.017526E-1,-6.545747E-2,-4.0315396E-1,2.7782828E-1,2.160844E-2,-4.38722E-1,1.1582706E-1,2.602521E-1,-2.593677E-1],"categories":[],"categories_nodes":[],"categories_segments":[],"categories_sizes":[],"default_left":[0,0,0,0,0,0,0,0,0,0,0,0,0,0,0,0,0,0,0,0,0,0,0,0,0,0,0,0,0,0,0,0,0,0,0,0,0,0,0,0,0,0,0,0,0,0,0,0,0,0,0,0,0,0,0,0,0,0,0,0,0,0,0,0,0,0,0,0,0],"id":5,"left_children":[1,3,5,7,9,-1,11,13,15,17,19,-1,-1,21,23,25,27,29,31,33,35,37,39,41,43,45,47,49,51,53,55,57,59,61,63,65,67,-1,-1,-1,-1,-1,-1,-1,-1,-1,-1,-1,-1,-1,-1,-1,-1,-1,-1,-1,-1,-1,-1,-1,-1,-1,-1,-1,-1,-1,-1,-1,-1],"loss_changes":[1.2446707E2,9.53502E1,1.1855392E0,7.685641E1,2.1115044E1,0E0,2.2504425E-1,4.635446E1,4.951248E1,1.78732E1,1.1341444E1,0E0,0E0,3.484867E1,5.994112E0,3.156857E1,4.2312317E0,1.0552722E1,1.754924E1,7.2241755E0,9.730067E0,5.3344154E0,2.3687996E1,1.7249908E0,6.2989674E0,6.7713013E0,1.6898556E1,5.346115E0,3.7596054E0,6.3433704E0,1.6822271E0,6.0581512E0,4.768549E0,5.2590055E0,5.273607E-1,5.4015665E0,5.9351015E0,0E0,0E0,0E0,0E0,0E0,0E0,0E0,0E0,0E0,0E0,0E0,0E0,0E0,0E0,0E0,0E0,0E0,0E0,0E0,0E0,0E0,0E0,0E0,0E0,0E0,0E0,0E0,0E0,0E0,0E0,0E0,0E0],"parents":[2147483647,0,0,1,1,2,2,3,3,4,4,6,6,7,7,8,8,9,9,10,10,13,13,14,14,15,15,16,16,17,17,18,18,19,19,20,20,21,21,22,22,23,23,24,24,25,25,26,26,27,27,28,28,29,29,30,30,31,31,32,32,33,33,34,34,35,35,36,36],"right_children":[2,4,6,8,10,-1,12,14,16,18,20,-1,-1,22,24,26,28,30,32,34,36,38,40,42,44,46,48,50,52,54,56,58,60,62,64,66,68,-1,-1,-1,-1,-1,-1,-1,-1,-1,-1,-1,-1,-1,-1,-1,-1,-1,-1,-1,-1,-1,-1,-1,-1,-1,-1,-1,-1,-1,-1,-1,-1],"split_conditions":[2.3647E4,8E-2,3.844E3,2.21E2,1.603E0,-3.0258795E-2,9.954E0,1.0873E1,3.5889E0,1.5449289E0,1.3562306E2,-1.112001E-1,-3.2186216E-1,3.837E0,2.7110012E1,1.1065298E0,1.031E0,1.915E0,1.2689E1,3.8E-1,3.568E0,2.242E2,3.025E3,2.87392E2,4.987396E1,4.593E0,5.122E3,3.81E2,4.68E0,2.712E2,2.9723355E2,2.4079904E2,4.291E0,1.8E-1,1.826E0,1.3532E1,4.6587E3,-3.1591862E-2,-3.772836E-1,1.3535234E-1,-1.1909703E-1,-1.2579702E-1,-3.3789706E-1,-3.0583858E-1,1.1662715E-1,-2.812263E-1,-4.7002163E-2,1.8332687E-1,-4.703035E-2,-5.2365E-1,-2.9839256E-1,-1.22189395E-1,-3.1280324E-1,2.6354453E-1,-1.12272196E-1,-3.2979375E-1,3.0496107E-2,2.7682766E-1,-1.4689791E-1,1.3674852E-1,-3.017526E-1,-6.545747E-2,-4.0315396E-1,2.7782828E-1,2.160844E-2,-4.38722E-1,1.1582706E-1,2.602521E-1,-2.593677E-1],"split_indices":[3,9,7,6,10,0,14,2,2,0,1,0,0,8,5,0,10,2,2,9,2,3,3,12,0,8,7,6,2,3,12,0,8,9,11,14,3,0,0,0,0,0,0,0,0,0,0,0,0,0,0,0,0,0,0,0,0,0,0,0,0,0,0,0,0,0,0,0,0],"split_type":[0,0,0,0,0,0,0,0,0,0,0,0,0,0,0,0,0,0,0,0,0,0,0,0,0,0,0,0,0,0,0,0,0,0,0,0,0,0,0,0,0,0,0,0,0,0,0,0,0,0,0,0,0,0,0,0,0,0,0,0,0,0,0,0,0,0,0,0,0],"sum_hessian":[1.094142E3,9.84224E2,1.0991792E2,7.319522E2,2.522718E2,1.5144072E0,1.0840351E2,4.0930005E2,3.2265216E2,2.0730594E2,4.496587E1,1.8056574E0,1.06597855E2,3.6589703E2,4.3403E1,2.26624E2,9.602816E1,2.35287E1,1.8377724E2,1.969943E1,2.526644E1,2.0333956E1,3.4556308E2,3.1886457E1,1.1516542E1,6.962132E1,1.5700267E2,5.1932087E1,4.4096073E1,1.5242531E1,8.28617E0,1.755006E2,8.276643E0,1.6685371E1,3.0140593E0,4.9585266E0,2.0307913E1,5.6644173E0,1.4669539E1,3.095015E2,3.6061584E1,5.8196263E0,2.6066832E1,4.1521463E0,7.3643966E0,5.5213024E1,1.44082985E1,3.65114E1,1.2049127E2,1.8181257E1,3.375083E1,1.6785284E1,2.7310791E1,9.344388E0,5.898143E0,7.1110597E0,1.1751101E0,1.7299075E2,2.5098314E0,2.6532474E0,5.6233954E0,8.200645E0,8.484725E0,1.7939093E0,1.2201501E0,2.8523977E0,2.1061287E0,1.8909794E1,1.398118E0],"tree_param":{"num_deleted":"0","num_feature":"15","num_nodes":"69","size_leaf_vector":"1"}},{"base_weights":[-4.6420217E-2,4.414558E-2,-1.0077245E0,-1.8044542E-1,3.3784443E-1,-2.5014905E-2,-1.02315E0,8.3518825E-2,-4.4237846E-1,4.371195E-1,-4.380036E-1,-9.577964E-2,-3.1001827E-1,-9.069457E-1,1.8027835E-1,-2.8650087E-1,-1.1366646E0,-5.3249896E-1,5.024519E-1,-1.0236733E0,-2.1944703E-3,-1.084715E0,-5.1353157E-2,3.5435358E-1,-4.033832E-1,-7.890056E-1,-1.3028349E-1,-6.741843E-1,-1.3015792E0,-6.59066E-1,2.9189682E-1,-8.828507E-3,5.820453E-1,-1.1856214E0,-2.5133568E-1,3.3181363E-1,-7.746892E-1,6.1545406E-2,-3.5607463E-1,1.6049747E-1,-2.4246617E-1,-1.9726428E-1,1.3139835E-1,-3.1272304E-1,-1.8491117E-2,-2.5883898E-1,7.749422E-2,4.7050066E-2,-1.3564529E-1,1.5844119E-1,-2.52672E-1,-5.419369E-1,-3.2816237E-1,-2.6157248E-1,-7.7929705E-2,5.639459E-2,-2.8979498E-1,5.283549E-2,2.1023844E-1,-3.7759715E-1,-8.2617685E-2,2.2633018E-1,-2.629006E-1,2.2598538E-1,-1.7008545E-1,3.809216E-2,-2.8018665E-1],"categories":[],"categories_nodes":[],"categories_segments":[],"categories_sizes":[],"default_left":[0,0,0,0,0,0,0,0,0,0,0,0,0,0,0,0,0,0,0,0,0,0,0,0,0,0,0,0,0,0,0,0,0,0,0,0,0,0,0,0,0,0,0,0,0,0,0,0,0,0,0,0,0,0,0,0,0,0,0,0,0,0,0,0,0,0,0],"id":6,"left_children":[1,3,5,7,9,-1,11,13,15,17,19,-1,-1,21,23,25,27,29,31,33,35,37,39,41,43,45,47,49,51,53,-1,55,57,59,61,63,65,-1,-1,-1,-1,-1,-1,-1,-1,-1,-1,-1,-1,-1,-1,-1,-1,-1,-1,-1,-1,-1,-1,-1,-1,-1,-1,-1,-1,-1,-1],"loss_changes":[8.6657166E1,6.0096325E1,1.1366119E0,3.5741703E1,3.0595577E1,0E0,2.772293E-1,2.4893875E1,2.7743088E1,2.246856E1,1.1554965E1,0E0,0E0,3.4624958E0,2.4112183E1,1.6628866E1,2.7236824E0,4.949284E0,1.3387764E1,2.118061E0,7.214162E0,2.7616425E0,2.6641634E0,1.57130375E1,1.1873678E1,4.11401E0,1.5207607E1,3.3717556E0,1.5611496E0,1.5966463E0,0E0,8.711982E0,1.3593964E1,6.97031E-1,3.5635786E0,7.823002E0,1.3304753E0,0E0,0E0,0E0,0E0,0E0,0E0,0E0,0E0,0E0,0E0,0E0,0E0,0E0,0E0,0E0,0E0,0E0,0E0,0E0,0E0,0E0,0E0,0E0,0E0,0E0,0E0,0E0,0E0,0E0,0E0],"parents":[2147483647,0,0,1,1,2,2,3,3,4,4,6,6,7,7,8,8,9,9,10,10,13,13,14,14,15,15,16,16,17,17,18,18,19,19,20,20,21,21,22,22,23,23,24,24,25,25,26,26,27,27,28,28,29,29,31,31,32,32,33,33,34,34,35,35,36,36],"right_children":[2,4,6,8,10,-1,12,14,16,18,20,-1,-1,22,24,26,28,30,32,34,36,38,40,42,44,46,48,50,52,54,-1,56,58,60,62,64,66,-1,-1,-1,-1,-1,-1,-1,-1,-1,-1,-1,-1,-1,-1,-1,-1,-1,-1,-1,-1,-1,-1,-1,-1,-1,-1,-1,-1,-1,-1],"split_conditions":[2.3647E4,-2E-2,3.844E3,1.71E2,1.334E0,-2.5014905E-2,9.954E0,6E0,4.7501E0,9.6876745E0,3.88771E0,-9.577964E-2,-3.1001827E-1,2.9598352E2,2.9665308E2,1.0864861E0,1.351E1,4.961451E1,1.8555576E0,1.3827E1,1.81E2,1.3943903E2,2.9805032E2,3.971E0,4.272767E1,1.5887E1,5.182023E0,2.21E2,2.77E2,8.656139E0,2.9189682E-1,1.1321E3,4.088673E1,3.639E0,2.9032733E2,8.887E2,1.3198491E2,6.1545406E-2,-3.5607463E-1,1.6049747E-1,-2.4246617E-1,-1.9726428E-1,1.3139835E-1,-3.1272304E-1,-1.8491117E-2,-2.5883898E-1,7.749422E-2,4.7050066E-2,-1.3564529E-1,1.5844119E-1,-2.52672E-1,-5.419369E-1,-3.2816237E-1,-2.6157248E-1,-7.7929705E-2,5.639459E-2,-2.8979498E-1,5.283549E-2,2.1023844E-1,-3.7759715E-1,-8.2617685E-2,2.2633018E-1,-2.629006E-1,2.2598538E-1,-1.7008545E-1,3.809216E-2,-2.8018665E-1],"split_indices":[3,9,7,6,11,0,14,6,2,5,2,0,0,12,12,0,14,13,0,14,6,1,12,8,13,14,4,6,6,5,0,3,13,2,12,3,1,0,0,0,0,0,0,0,0,0,0,0,0,0,0,0,0,0,0,0,0,0,0,0,0,0,0,0,0,0,0],"split_type":[0,0,0,0,0,0,0,0,0,0,0,0,0,0,0,0,0,0,0,0,0,0,0,0,0,0,0,0,0,0,0,0,0,0,0,0,0,0,0,0,0,0,0,0,0,0,0,0,0,0,0,0,0,0,0,0,0,0,0,0,0,0,0,0,0,0,0],"sum_hessian":[9.9384717E2,9.0914905E2,8.4698105E1,5.154052E2,3.9374387E2,1.4953885E0,8.320271E1,2.5704654E2,2.5835867E2,3.494641E2,4.4279747E1,1.6549648E0,8.154775E1,2.2131144E1,2.3491537E2,2.1214224E2,4.6216442E1,2.1608898E1,3.2785522E2,1.8316242E1,2.5963503E1,1.8102198E1,4.0289474E0,1.8125078E2,5.36646E1,4.9349365E1,1.6279288E2,1.3485705E1,3.2730736E1,2.0451735E1,1.1571621E0,4.4283375E1,2.8357184E2,1.4698972E1,3.6172698E0,1.8524445E1,7.4390583E0,1.2550408E0,1.6847157E1,2.435397E0,1.5935502E0,1.3314024E1,1.6793675E2,1.7984797E1,3.5679802E1,4.62658E1,3.0835633E0,8.631216E1,7.648072E1,1.3910527E0,1.2094652E1,7.2968154E0,2.543392E1,1.2568604E1,7.8831306E0,3.7397327E1,6.8860474E0,6.4742516E1,2.1882933E2,1.3252791E1,1.4461801E0,1.3069648E0,2.3103049E0,1.2720911E1,5.803534E0,1.1471864E0,6.291872E0],"tree_param":{"num_deleted":"0","num_feature":"15","num_nodes":"67","size_leaf_vector":"1"}},{"base_weights":[-4.3986272E-2,4.0322244E-2,-8.375803E-1,-5.748844E-1,1.3895449E-1,1.5010405E-1,-8.66855E-1,-9.197156E-1,-3.7371007E-1,-2.959454E-1,2.5799268E-1,-3.456335E-1,-9.5677793E-1,8.123869E-2,-9.556341E-1,-1.4755327E-1,-9.397066E-1,-5.108231E-1,1.269232E-1,3.2275987E-1,-5.325055E-1,-7.3262644E-1,2.4209328E-1,1.301362E-1,-9.868683E-1,-1.0126888E0,-5.590761E-1,-9.69937E-1,4.3966744E-2,-9.778167E-1,-4.632217E-2,5.452727E-1,-6.520977E-1,4.0865642E-1,-6.778472E-1,-7.6290965E-2,4.5725513E-1,-9.299551E-1,1.4582573E-1,-2.806501E-2,-8.131285E-1,8.2093585E-1,-2.0921575E-1,-4.2538468E-2,-9.987663E-1,-3.1084162E-1,-1.1119307E-1,6.3625015E-2,-2.5025272E-1,-3.8492955E-2,-3.1518203E-1,8.651879E-2,-2.0662017E-1,-3.0157763E-1,-7.132514E-2,2.663303E-1,-1.725445E-1,-1.5537687E-1,-3.911956E-1,-3.048696E-1,1.6250691E-1,-3.5020304E-1,-1.09397806E-1,-1.9632424E-1,1.7238772E-2,1.6100314E-1,-6.1186347E-2,-3.503829E-2,-3.610506E-1,1.9974613E-1,-1.672156E-1,-2.7316663E-1,-2.8123194E-2,4.6680108E-1,-8.744071E-2,-1.02211624E-1,-3.0551833E-1],"categories":[],"categories_nodes":[],"categories_segments":[],"categories_sizes":[],"default_left":[0,0,0,0,0,0,0,0,0,0,0,0,0,0,0,0,0,0,0,0,0,0,0,0,0,0,0,0,0,0,0,0,0,0,0,0,0,0,0,0,0,0,0,0,0,0,0,0,0,0,0,0,0,0,0,0,0,0,0,0,0,0,0,0,0,0,0,0,0,0,0,0,0,0,0,0,0],"id":7,"left_children":[1,3,5,7,9,-1,11,13,15,17,19,21,23,-1,25,27,29,31,33,35,37,39,41,-1,43,45,47,49,51,53,-1,55,57,59,61,63,65,67,69,-1,71,73,-1,-1,75,-1,-1,-1,-1,-1,-1,-1,-1,-1,-1,-1,-1,-1,-1,-1,-1,-1,-1,-1,-1,-1,-1,-1,-1,-1,-1,-1,-1,-1,-1,-1,-1],"loss_changes":[6.1460987E1,5.0497463E1,3.8888855E0,7.633953E0,3.71894E1,0E0,3.732544E0,2.0413742E0,9.3736725E0,1.4105373E1,2.9015308E1,3.4346855E0,3.4981232E0,0E0,3.543892E-1,8.592381E0,4.7839165E-1,1.5671913E1,1.2262921E1,2.8014736E1,1.1739243E1,3.8097095E-1,4.073349E0,0E0,5.8354187E-1,1.3293839E-1,1.7361887E0,5.643053E-1,8.255314E0,1.6451454E-1,0E0,5.367505E0,7.284115E0,8.09112E0,1.7334428E0,1.0265678E1,2.0593018E1,5.926239E0,6.5017233E0,0E0,4.5850658E-1,4.086258E0,0E0,0E0,5.6951904E-1,0E0,0E0,0E0,0E0,0E0,0E0,0E0,0E0,0E0,0E0,0E0,0E0,0E0,0E0,0E0,0E0,0E0,0E0,0E0,0E0,0E0,0E0,0E0,0E0,0E0,0E0,0E0,0E0,0E0,0E0,0E0,0E0],"parents":[2147483647,0,0,1,1,2,2,3,3,4,4,6,6,7,7,8,8,9,9,10,10,11,11,12,12,14,14,15,15,16,16,17,17,18,18,19,19,20,20,21,21,22,22,24,24,25,25,26,26,27,27,28,28,29,29,31,31,32,32,33,33,34,34,35,35,36,36,37,37,38,38,40,40,41,41,44,44],"right_children":[2,4,6,8,10,-1,12,14,16,18,20,22,24,-1,26,28,30,32,34,36,38,40,42,-1,44,46,48,50,52,54,-1,56,58,60,62,64,66,68,70,-1,72,74,-1,-1,76,-1,-1,-1,-1,-1,-1,-1,-1,-1,-1,-1,-1,-1,-1,-1,-1,-1,-1,-1,-1,-1,-1,-1,-1,-1,-1,-1,-1,-1,-1,-1,-1],"split_conditions":[2.1351065E2,1.0916952E1,1.3146667E2,3.7965436E0,-2.4E-1,1.5010405E-1,2.8642703E2,3.439E3,5.182023E0,1.2643304E1,6.336E3,4.487E0,4.7974585E2,8.123869E-2,1.0416963E1,7.557003E0,2.4205E1,4.5E3,1.8403E3,4.088673E1,1.1031784E1,1.1665E1,2.3647E4,1.301362E-1,4.15E1,1.3364932E2,1.0522793E1,8.703121E0,2.961036E2,1.5858E1,-4.632217E-2,2.64E0,5.282E0,3.837E0,6.866461E1,1.4628814E1,4.1745E3,1.3973922E1,7.83E2,-2.806501E-2,4.788295E1,3.9841522E1,-2.0921575E-1,-4.2538468E-2,1.0578088E3,-3.1084162E-1,-1.1119307E-1,6.3625015E-2,-2.5025272E-1,-3.8492955E-2,-3.1518203E-1,8.651879E-2,-2.0662017E-1,-3.0157763E-1,-7.132514E-2,2.663303E-1,-1.725445E-1,-1.5537687E-1,-3.911956E-1,-3.048696E-1,1.6250691E-1,-3.5020304E-1,-1.09397806E-1,-1.9632424E-1,1.7238772E-2,1.6100314E-1,-6.1186347E-2,-3.503829E-2,-3.610506E-1,1.9974613E-1,-1.672156E-1,-2.7316663E-1,-2.8123194E-2,4.6680108E-1,-8.744071E-2,-1.02211624E-1,-3.0551833E-1],"split_indices":[4,5,1,0,9,0,12,7,4,0,7,8,5,0,5,5,2,7,3,13,0,14,3,0,3,1,5,0,12,14,0,2,2,8,5,5,3,5,3,0,13,0,0,0,5,0,0,0,0,0,0,0,0,0,0,0,0,0,0,0,0,0,0,0,0,0,0,0,0,0,0,0,0,0,0,0,0],"split_type":[0,0,0,0,0,0,0,0,0,0,0,0,0,0,0,0,0,0,0,0,0,0,0,0,0,0,0,0,0,0,0,0,0,0,0,0,0,0,0,0,0,0,0,0,0,0,0,0,0,0,0,0,0,0,0,0,0,0,0,0,0,0,0,0,0,0,0,0,0,0,0,0,0,0,0,0,0],"sum_hessian":[9.171022E2,8.298872E2,8.721498E1,1.1399966E2,7.158875E2,1.5229082E0,8.569207E1,4.068689E1,7.331277E1,1.5352086E2,5.623667E2,1.3321293E1,7.237077E1,1.0000873E0,3.9686802E1,5.328302E1,2.0029745E1,1.0165673E2,5.186413E1,5.203269E2,4.2039772E1,7.8836827E0,5.43761E0,1.248697E0,7.112208E1,3.333679E1,6.3500147E0,9.297083E0,4.3985935E1,1.8868898E1,1.1608473E0,1.1656814E1,8.9999916E1,3.87802E1,1.3083926E1,1.312721E2,3.890548E2,2.6274187E1,1.5765586E1,1.1238592E0,6.759824E0,3.4426594E0,1.9949509E0,1.1667874E0,6.995529E1,3.1569925E1,1.7668632E0,1.7298805E0,4.620134E0,1.0397658E0,8.257318E0,3.343755E1,1.0548386E1,1.7848724E1,1.0201749E0,9.086778E0,2.5700364E0,7.612581E1,1.3874106E1,2.744591E0,3.603561E1,4.040908E0,9.043018E0,2.3933142E1,1.0733895E2,3.4750247E2,4.1552334E1,6.9729524E0,1.9301235E1,9.094075E0,6.671511E0,5.719486E0,1.0403372E0,1.8327916E0,1.6098677E0,2.5578382E0,6.739745E1],"tree_param":{"num_deleted":"0","num_feature":"15","num_nodes":"77","size_leaf_vector":"1"}},{"base_weights":[-4.193318E-2,1.8489314E-2,-9.366357E-1,3.8031894E-1,-1.0951196E-1,9.734206E-4,-9.6107364E-1,-8.928028E-1,4.3762642E-1,-3.809154E-1,5.2249182E-2,-5.2359696E-2,-9.7730136E-1,-2.945096E-1,-7.2832994E-2,5.699247E-1,3.3591203E-2,-1.6815656E-1,-8.1141335E-1,3.297934E-1,-2.9379904E-1,-3.8242307E-1,-3.022222E-1,6.996223E-1,1.1810623E-1,2.893767E-1,-3.9062497E-1,-7.224618E-1,3.543033E-2,-1.1404461E0,-4.1059238E-1,3.0747728E-2,6.784676E-1,-5.6143373E-1,3.034574E-4,1.3599864E-1,-2.4319157E-1,2.2481547E-1,-1.7973444E-1,-5.131871E-1,7.668796E-2,5.8670375E-3,3.2404608E-1,2.2847381E-1,-1.6973901E-1,-8.255718E-2,-2.8057864E-1,4.5366336E-2,-3.546381E-1,-1.3744573E-1,-3.9276683E-1,9.861892E-2,-2.3738089E-1,4.7158003E-2,-3.913067E-1,2.3109522E-1,-1.3939327E-1,-3.467222E-1,-1.1235991E-1,5.1139783E-2,-2.4567348E-1],"categories":[],"categories_nodes":[],"categories_segments":[],"categories_sizes":[],"default_left":[0,0,0,0,0,0,0,0,0,0,0,0,0,0,0,0,0,0,0,0,0,0,0,0,0,0,0,0,0,0,0,0,0,0,0,0,0,0,0,0,0,0,0,0,0,0,0,0,0,0,0,0,0,0,0,0,0,0,0,0,0],"id":8,"left_children":[1,3,5,7,9,-1,11,13,15,17,19,-1,21,-1,-1,23,25,27,29,31,33,35,-1,37,39,41,43,45,47,49,51,53,55,57,59,-1,-1,-1,-1,-1,-1,-1,-1,-1,-1,-1,-1,-1,-1,-1,-1,-1,-1,-1,-1,-1,-1,-1,-1,-1,-1],"loss_changes":[4.6220303E1,3.7166203E1,1.2454147E0,1.5689447E1,2.6049023E1,0E0,5.0231934E-1,3.025961E-1,1.0742428E1,2.0153755E1,3.5859398E1,0E0,5.359268E-1,0E0,0E0,8.801262E0,5.617053E0,1.689861E1,9.160454E0,2.1573551E1,1.3086424E1,1.8310761E0,0E0,8.048447E0,9.243269E0,6.8532767E0,4.36781E0,3.5698547E0,1.5730115E1,3.9525719E0,9.963333E0,1.9202545E1,1.0392193E1,9.23575E0,1.1320855E1,0E0,0E0,0E0,0E0,0E0,0E0,0E0,0E0,0E0,0E0,0E0,0E0,0E0,0E0,0E0,0E0,0E0,0E0,0E0,0E0,0E0,0E0,0E0,0E0,0E0,0E0],"parents":[2147483647,0,0,1,1,2,2,3,3,4,4,6,6,7,7,8,8,9,9,10,10,12,12,15,15,16,16,17,17,18,18,19,19,20,20,21,21,23,23,24,24,25,25,26,26,27,27,28,28,29,29,30,30,31,31,32,32,33,33,34,34],"right_children":[2,4,6,8,10,-1,12,14,16,18,20,-1,22,-1,-1,24,26,28,30,32,34,36,-1,38,40,42,44,46,48,50,52,54,56,58,60,-1,-1,-1,-1,-1,-1,-1,-1,-1,-1,-1,-1,-1,-1,-1,-1,-1,-1,-1,-1,-1,-1,-1,-1,-1,-1],"split_conditions":[2.3647E4,2.8889194E2,3.844E3,8.316652E0,1.7073187E1,9.734206E-4,9.954E0,7E-2,4.1901535E2,4.5241294E0,9.600733E0,-5.2359696E-2,2.8869E4,-2.945096E-1,-7.2832994E-2,1.3596211E1,2.32E0,1.8555576E0,2.8615013E1,7.0539346E0,1.6754773E2,-2.6E-1,-3.022222E-1,1.421E1,3.7942986E1,4.729073E1,1.1195E1,1.6477E0,1.05199E1,8.24E-1,5.3681116E0,5.218E0,9.35E0,5.3617764E1,1.0578088E3,1.3599864E-1,-2.4319157E-1,2.2481547E-1,-1.7973444E-1,-5.131871E-1,7.668796E-2,5.8670375E-3,3.2404608E-1,2.2847381E-1,-1.6973901E-1,-8.255718E-2,-2.8057864E-1,4.5366336E-2,-3.546381E-1,-1.3744573E-1,-3.9276683E-1,9.861892E-2,-2.3738089E-1,4.7158003E-2,-3.913067E-1,2.3109522E-1,-1.3939327E-1,-3.467222E-1,-1.1235991E-1,5.1139783E-2,-2.4567348E-1],"split_indices":[3,12,7,5,5,0,14,9,6,4,4,0,3,0,0,4,2,0,0,0,1,9,0,2,5,13,14,2,2,11,4,2,2,5,5,0,0,0,0,0,0,0,0,0,0,0,0,0,0,0,0,0,0,0,0,0,0,0,0,0,0],"split_type":[0,0,0,0,0,0,0,0,0,0,0,0,0,0,0,0,0,0,0,0,0,0,0,0,0,0,0,0,0,0,0,0,0,0,0,0,0,0,0,0,0,0,0,0,0,0,0,0,0,0,0,0,0,0,0,0,0,0,0,0,0],"sum_hessian":[8.5365875E2,8.005725E2,5.308622E1,2.0868831E2,5.918842E2,1.3672988E0,5.171892E1,8.361138E0,2.0032716E2,2.2052751E2,3.713567E2,1.2831085E0,5.0435814E1,6.906394E0,1.4547441E0,1.5060283E2,4.9724346E1,1.4851813E2,7.2009384E1,2.061019E2,1.652548E2,3.0895905E0,4.7346222E1,1.16587204E2,3.4015617E1,3.1218616E1,1.850573E1,3.9210682E1,1.0930744E2,3.8532715E1,3.347667E1,1.11532524E2,9.456937E1,8.604472E1,7.921008E1,1.026844E0,2.0627465E0,1.1269227E2,3.8949423E0,1.5790126E0,3.2436604E1,2.4040516E1,7.1781006E0,2.000392E0,1.6505339E1,1.3380424E1,2.583026E1,1.0061469E2,8.692747E0,8.378097E0,3.015462E1,1.1424787E1,2.2051884E1,1.0268925E2,8.843281E0,8.783767E1,6.731693E0,1.9345663E1,6.669906E1,6.62425E1,1.2967583E1],"tree_param":{"num_deleted":"0","num_feature":"15","num_nodes":"61","size_leaf_vector":"1"}},{"base_weights":[-3.694521E-2,-1.3884687E-1,4.010322E-1,4.177525E-2,-3.6220032E-1,7.058126E-1,9.793784E-2,-4.9762714E-1,1.752127E-1,-2.0614564E-1,-7.107636E-1,7.5498927E-1,-5.6945527E-1,2.5573495E-1,-6.0118246E-1,1.5876636E-1,-6.807381E-1,4.9586147E-1,9.01593E-3,-7.42435E-1,-6.401355E-2,-1.0739907E0,-4.5617867E-1,-1.2367099E-1,8.36974E-1,-2.6390877E-1,1.4118808E-2,-5.5935913E-1,3.558256E-1,-8.866669E-1,2.5411528E-1,7.8555864E-1,-5.00604E-1,-3.0187398E-1,-8.901756E-1,6.043683E-1,-4.7322726E-1,3.756226E-1,-2.7899173E-1,-1.5368839E-1,-9.034108E-1,4.3266124E-1,-3.294465E-1,8.906369E-2,-1.1543607E0,-6.9097094E-2,-9.31356E-1,2.6760817E-1,-9.67074E-1,-6.397877E-2,9.073907E-1,-1.8202968E-1,-3.2297766E-1,4.264981E-1,-2.8097087E-1,3.004825E-1,-1.1774874E0,-7.901738E-2,3.0597055E-1,-2.3097134E-1,1.4437512E-1,-1.5548147E-1,2.1523446E-1,-3.1813538E-1,-1.2106502E-1,-2.2038217E-1,2.0281862E-1,1.6644323E-2,-3.6502242E-1,-2.4073681E-1,1.446532E-1,-3.243126E-1,-2.668638E-3,-2.5252548E-1,9.2441395E-2,2.2768665E-2,-3.0076906E-1,-1.4763364E-1,1.7241937E-1,-3.3108223E-2,-2.2372366E-1,-3.9963013E-1,-2.0535327E-1,-1.6422842E-1,1.12660035E-1,-5.2202668E-2,-2.8998247E-1,7.7870274E-3,-4.6702906E-1,-2.302863E-1,2.254684E-1,2.8120577E-1,-1.310838E-1,-2.0199826E-1,1.4844023E-1,1.4823712E-1,-2.536056E-1,1.6607253E-1,-4.0299118E-2,-4.688759E-1,-8.246055E-2],"categories":[],"categories_nodes":[],"categories_segments":[],"categories_sizes":[],"default_left":[0,0,0,0,0,0,0,0,0,0,0,0,0,0,0,0,0,0,0,0,0,0,0,0,0,0,0,0,0,0,0,0,0,0,0,0,0,0,0,0,0,0,0,0,0,0,0,0,0,0,0,0,0,0,0,0,0,0,0,0,0,0,0,0,0,0,0,0,0,0,0,0,0,0,0,0,0,0,0,0,0,0,0,0,0,0,0,0,0,0,0,0,0,0,0,0,0,0,0,0,0],"id":9,"left_children":[1,3,5,7,9,11,13,15,17,19,21,23,25,27,29,31,33,35,37,39,41,43,45,47,49,-1,-1,51,53,55,-1,57,59,61,63,65,67,69,71,73,75,77,79,-1,81,83,85,-1,87,89,91,93,-1,95,-1,97,99,-1,-1,-1,-1,-1,-1,-1,-1,-1,-1,-1,-1,-1,-1,-1,-1,-1,-1,-1,-1,-1,-1,-1,-1,-1,-1,-1,-1,-1,-1,-1,-1,-1,-1,-1,-1,-1,-1,-1,-1,-1,-1,-1,-1],"loss_changes":[3.570548E1,2.6187344E1,1.3882153E1,2.5968681E1,1.56370735E1,5.1423416E0,8.635421E0,8.710609E0,1.5397093E1,1.5337526E1,7.770279E0,5.3464813E0,6.8407714E-1,5.3736205E0,6.727889E0,7.180348E0,4.1867332E0,1.0658499E1,2.0310452E1,3.8598576E0,2.1321407E1,4.316864E0,9.915013E0,6.930021E0,4.2895927E0,0E0,0E0,1.2337456E0,5.614903E0,4.6915817E0,0E0,2.433837E0,2.6481457E0,5.1149244E0,2.525837E0,9.054569E0,4.1925125E0,1.1009434E1,2.3331554E1,3.520987E0,3.2734108E0,7.6907215E0,9.518329E0,0E0,1.9507294E0,6.7943277E0,4.7992897E-1,0E0,2.5873175E0,3.887621E0,2.9040298E0,2.1418087E0,0E0,5.133441E0,0E0,4.3410403E-1,3.1521091E0,0E0,0E0,0E0,0E0,0E0,0E0,0E0,0E0,0E0,0E0,0E0,0E0,0E0,0E0,0E0,0E0,0E0,0E0,0E0,0E0,0E0,0E0,0E0,0E0,0E0,0E0,0E0,0E0,0E0,0E0,0E0,0E0,0E0,0E0,0E0,0E0,0E0,0E0,0E0,0E0,0E0,0E0,0E0,0E0],"parents":[2147483647,0,0,1,1,2,2,3,3,4,4,5,5,6,6,7,7,8,8,9,9,10,10,11,11,12,12,13,13,14,14,15,15,16,16,17,17,18,18,19,19,20,20,21,21,22,22,23,23,24,24,27,27,28,28,29,29,31,31,32,32,33,33,34,34,35,35,36,36,37,37,38,38,39,39,40,40,41,41,42,42,44,44,45,45,46,46,48,48,49,49,50,50,51,51,53,53,55,55,56,56],"right_children":[2,4,6,8,10,12,14,16,18,20,22,24,26,28,30,32,34,36,38,40,42,44,46,48,50,-1,-1,52,54,56,-1,58,60,62,64,66,68,70,72,74,76,78,80,-1,82,84,86,-1,88,90,92,94,-1,96,-1,98,100,-1,-1,-1,-1,-1,-1,-1,-1,-1,-1,-1,-1,-1,-1,-1,-1,-1,-1,-1,-1,-1,-1,-1,-1,-1,-1,-1,-1,-1,-1,-1,-1,-1,-1,-1,-1,-1,-1,-1,-1,-1,-1,-1,-1],"split_conditions":[1.4E-1,9.75E-1,1.9E-1,-3.8E-1,8.628E2,2.169E0,1.5418E1,4.986E3,1.4394E1,1.1297451E1,2.4950838E1,1.5043E0,5.616E3,1.4332621E0,4.689E0,2.922478E2,4.7622185E0,2.9752545E2,2.789E0,2.8857358E2,1.12E2,8.98E-1,1.6676E4,8.77E-1,3.873854E1,-2.6390877E-1,1.4118808E-2,4.8466487E0,1.619E1,2.867937E2,2.5411528E-1,1.3272224E2,2.9901227E2,1.4324072E1,2.9563986E2,4.088E0,1.377E1,6.233938E-1,5.910399E0,9.405916E0,1E0,3.369E0,6.208E3,8.906369E-2,4.601372E1,4.4859E0,1.0834E1,2.6760817E-1,2.406E2,1.0290994E1,1.94E1,1.725378E1,-3.2297766E-1,6.508E3,-2.8097087E-1,1.3629135E2,1.419596E2,-7.901738E-2,3.0597055E-1,-2.3097134E-1,1.4437512E-1,-1.5548147E-1,2.1523446E-1,-3.1813538E-1,-1.2106502E-1,-2.2038217E-1,2.0281862E-1,1.6644323E-2,-3.6502242E-1,-2.4073681E-1,1.446532E-1,-3.243126E-1,-2.668638E-3,-2.5252548E-1,9.2441395E-2,2.2768665E-2,-3.0076906E-1,-1.4763364E-1,1.7241937E-1,-3.3108223E-2,-2.2372366E-1,-3.9963013E-1,-2.0535327E-1,-1.6422842E-1,1.12660035E-1,-5.2202668E-2,-2.8998247E-1,7.7870274E-3,-4.6702906E-1,-2.302863E-1,2.254684E-1,2.8120577E-1,-1.310838E-1,-2.0199826E-1,1.4844023E-1,1.4823712E-1,-2.536056E-1,1.6607253E-1,-4.0299118E-2,-4.688759E-1,-8.246055E-2],"split_indices":[9,11,9,9,3,10,14,7,14,5,4,2,7,0,8,12,4,12,2,12,6,10,3,11,13,0,0,4,2,12,0,1,12,0,12,8,14,0,0,5,11,2,7,0,13,2,14,0,3,0,2,5,0,7,0,1,1,0,0,0,0,0,0,0,0,0,0,0,0,0,0,0,0,0,0,0,0,0,0,0,0,0,0,0,0,0,0,0,0,0,0,0,0,0,0,0,0,0,0,0,0],"split_type":[0,0,0,0,0,0,0,0,0,0,0,0,0,0,0,0,0,0,0,0,0,0,0,0,0,0,0,0,0,0,0,0,0,0,0,0,0,0,0,0,0,0,0,0,0,0,0,0,0,0,0,0,0,0,0,0,0,0,0,0,0,0,0,0,0,0,0,0,0,0,0,0,0,0,0,0,0,0,0,0,0,0,0,0,0,0,0,0,0,0,0,0,0,0,0,0,0,0,0,0,0],"sum_hessian":[7.977743E2,6.4774927E2,1.5002507E2,3.585826E2,2.8916666E2,7.4141975E1,7.588309E1,7.0572754E1,2.8800986E2,2.0084021E2,8.832644E1,7.178191E1,2.360067E0,6.2427013E1,1.3456077E1,1.542218E1,5.5150574E1,9.764214E1,1.903677E2,4.1192E1,1.5964821E2,3.507081E1,5.3255627E1,6.0827246E0,6.569919E1,1.2860367E0,1.07403E0,6.3256E0,5.6101414E1,1.1564227E1,1.8918499E0,7.808297E0,7.613883E0,2.0502934E1,3.464764E1,8.8148674E1,9.493473E0,8.362136E1,1.06746346E2,9.264202E0,3.1927797E1,5.5384117E1,1.0426409E2,1.7930373E0,3.327777E1,2.9979559E1,2.3276068E1,2.7333446E0,3.34938E0,4.7693057E0,6.0929882E1,4.439122E0,1.8864782E0,5.3827915E1,2.2734954E0,2.2689586E0,9.295268E0,1.4032433E0,6.405054E0,6.144463E0,1.4694202E0,1.731796E1,3.1849728E0,2.4793074E1,9.854566E0,4.010006E0,8.4138664E1,6.089001E0,3.4044716E0,6.394314E0,7.722704E1,2.6135275E1,8.061107E1,3.3903496E0,5.8738527E0,2.956983E0,2.8970814E1,7.0473146E0,4.8336803E1,6.9141884E1,3.5122208E1,2.2812756E1,1.0465017E1,1.4331074E1,1.5648486E1,1.2992601E0,2.1976807E1,1.6040908E0,1.7452891E0,2.5918407E0,2.1774647E0,5.989766E1,1.0322247E0,2.5750904E0,1.8640317E0,5.1690945E1,2.1369722E0,1.2615254E0,1.0074332E0,6.0011473E0,3.2941213E0],"tree_param":{"num_deleted":"0","num_feature":"15","num_nodes":"101","size_leaf_vector":"1"}},{"base_weights":[-3.4024965E-2,5.6196763E-3,-8.984303E-1,5.473906E-2,-6.455068E-1,-1.2042564E-2,-9.3545485E-1,-2.2735763E-1,1.5788159E-1,-7.342804E-1,2.506937E-1,-1.7547686E-2,-9.636063E-1,1.2631163E-1,-3.965813E-1,2.0631322E-1,-4.1046318E-1,-1.0091658E0,-3.7024146E-1,-1.0299411E-1,-2.9791605E-1,5.074565E-1,-2.4517883E-1,1.723383E-1,-6.498285E-1,5.210108E-1,1.0489864E-1,-3.391955E-1,-1.1992233E-1,-1.074367E0,-3.1876992E-2,-9.131582E-1,-5.6050554E-2,-1.5474176E-2,2.2852762E-1,3.272127E-2,-2.4843769E-1,1.5771446E-1,-1.4703785E-1,-1.3685314E-1,-4.2549264E-1,-2.2597045E-3,2.0774385E-1,8.444889E-2,-6.277078E-2,1.1504974E-1,-1.3714738E-1,-3.3012053E-1,-7.065649E-2,-1.5242427E-2,-3.1259656E-1,6.7070045E-2,-2.8998414E-1],"categories":[],"categories_nodes":[],"categories_segments":[],"categories_sizes":[],"default_left":[0,0,0,0,0,0,0,0,0,0,0,0,0,0,0,0,0,0,0,0,0,0,0,0,0,0,0,0,0,0,0,0,0,0,0,0,0,0,0,0,0,0,0,0,0,0,0,0,0,0,0,0,0],"id":10,"left_children":[1,3,5,7,9,-1,11,13,15,17,-1,-1,19,21,23,25,27,29,31,-1,-1,33,35,37,39,41,43,-1,45,47,-1,49,51,-1,-1,-1,-1,-1,-1,-1,-1,-1,-1,-1,-1,-1,-1,-1,-1,-1,-1,-1,-1],"loss_changes":[2.5728642E1,2.302189E1,1.0086784E0,1.9507637E1,7.252779E0,0E0,7.2171974E-1,1.0798077E1,1.3589859E1,4.4466915E0,0E0,0E0,2.1567154E-1,8.46095E0,1.7647223E1,1.4395615E1,7.995865E0,1.4674835E0,3.75338E0,0E0,0E0,4.2170444E0,6.3868785E0,9.218782E0,1.1917339E1,9.9832325E0,1.912452E1,0E0,5.066247E0,2.8565598E-1,0E0,8.481116E-1,4.0844417E0,0E0,0E0,0E0,0E0,0E0,0E0,0E0,0E0,0E0,0E0,0E0,0E0,0E0,0E0,0E0,0E0,0E0,0E0,0E0,0E0],"parents":[2147483647,0,0,1,1,2,2,3,3,4,4,6,6,7,7,8,8,9,9,12,12,13,13,14,14,15,15,16,16,17,17,18,18,21,21,22,22,23,23,24,24,25,25,26,26,28,28,29,29,31,31,32,32],"right_children":[2,4,6,8,10,-1,12,14,16,18,-1,-1,20,22,24,26,28,30,32,-1,-1,34,36,38,40,42,44,-1,46,48,-1,50,52,-1,-1,-1,-1,-1,-1,-1,-1,-1,-1,-1,-1,-1,-1,-1,-1,-1,-1,-1,-1],"split_conditions":[2.8869E4,2.308E0,3.844E3,4.102324E1,4E-1,-1.2042564E-2,9.954E0,4.377E0,6.327E3,4.576E0,2.506937E-1,-1.7547686E-2,8.0896845E0,1.52E2,5.203E3,4.363E0,2.8354E0,7.225E3,3.284E0,-1.0299411E-1,-2.9791605E-1,-8E-2,1.424E0,3.41062E0,2.9640448E2,4.065E0,5.729E3,-3.391955E-1,6.36461E0,1.3992E1,-3.1876992E-2,2.8668945E2,2.9740097E2,-1.5474176E-2,2.2852762E-1,3.272127E-2,-2.4843769E-1,1.5771446E-1,-1.4703785E-1,-1.3685314E-1,-4.2549264E-1,-2.2597045E-3,2.0774385E-1,8.444889E-2,-6.277078E-2,1.1504974E-1,-1.3714738E-1,-3.3012053E-1,-7.065649E-2,-1.5242427E-2,-3.1259656E-1,6.7070045E-2,-2.8998414E-1],"split_indices":[3,10,7,13,9,0,14,8,7,2,0,0,4,6,7,8,2,7,8,0,0,9,10,2,12,8,7,0,4,14,0,12,12,0,0,0,0,0,0,0,0,0,0,0,0,0,0,0,0,0,0,0,0],"split_type":[0,0,0,0,0,0,0,0,0,0,0,0,0,0,0,0,0,0,0,0,0,0,0,0,0,0,0,0,0,0,0,0,0,0,0,0,0,0,0,0,0,0,0,0,0,0,0,0,0,0,0,0,0],"sum_hessian":[7.4963654E2,7.177132E2,3.1923328E1,6.682202E2,4.9492966E1,1.4063394E0,3.0516989E1,1.7858438E2,4.8963586E2,4.7170055E1,2.3229094E0,1.0448848E0,2.9472105E1,5.7877277E1,1.2070711E2,4.5177475E2,3.7861095E1,2.5866302E1,2.1303755E1,1.9094282E0,2.7562675E1,2.8386776E1,2.9490501E1,3.7279106E1,8.3428E1,1.0909786E2,3.426769E2,1.0052232E1,2.7808863E1,2.3947126E1,1.919175E0,7.1105175E0,1.4193237E1,9.124778E0,1.9261997E1,1.8849054E1,1.0641446E1,2.4445591E1,1.2833516E1,6.7909035E1,1.5518966E1,2.695783E1,8.214003E1,2.1942578E2,1.2325112E2,1.1100692E1,1.670817E1,2.2923847E1,1.0232787E0,1.1054384E0,6.0050793E0,1.1435942E1,2.7572951E0],"tree_param":{"num_deleted":"0","num_feature":"15","num_nodes":"53","size_leaf_vector":"1"}},{"base_weights":[-2.9851021E-2,3.5391837E-2,-4.2754456E-1,-7.792841E-1,7.5137064E-2,-5.021336E-1,3.444028E-1,-8.222014E-1,5.5624362E-2,1.903621E-1,-2.3560421E-1,-8.3634514E-1,-3.20254E-1,2.482643E-2,-8.6836684E-1,-1.4419068E-3,4.6963245E-1,-1.5124494E-1,-2.9292756E-1,-3.2238975E-1,-1.069861E0,-5.933082E-1,7.835733E-2,-9.296219E-1,-1.5269391E-1,1.4949222E-1,-5.654183E-1,2.5806174E-1,7.1677977E-1,-6.221547E-1,-1.7052159E-2,-8.279174E-1,8.2621205E-1,-6.7014587E-1,-4.7486746E-1,-2.972056E-1,-1.5283418E0,-8.997758E-1,2.5916445E-1,-3.4684025E-2,-2.8795543E-1,-1.7601563E-1,1.2046354E-1,-9.463719E-2,9.4698995E-2,1.1147046E-2,-3.4967723E-1,1.2616763E-1,-9.882602E-2,1.2900808E-2,2.4228552E-1,3.940101E-2,-3.201524E-1,-3.1193465E-1,1.2451062E-2,-7.291712E-2,-3.0134007E-1,3.036003E-1,3.8211662E-2,-2.8640357E-1,1.7973017E-2,-1.4303513E-1,1.5951633E-1,-1.4924937E-1,-4.9176294E-1,-3.4133065E-1,-5.219598E-2,1.773267E-1,-1.4238764E-1],"categories":[],"categories_nodes":[],"categories_segments":[],"categories_sizes":[],"default_left":[0,0,0,0,0,0,0,0,0,0,0,0,0,0,0,0,0,0,0,0,0,0,0,0,0,0,0,0,0,0,0,0,0,0,0,0,0,0,0,0,0,0,0,0,0,0,0,0,0,0,0,0,0,0,0,0,0,0,0,0,0,0,0,0,0,0,0,0,0],"id":11,"left_children":[1,3,5,7,9,11,-1,13,-1,15,17,19,21,-1,23,25,27,29,-1,31,33,35,37,39,41,43,45,47,49,51,53,55,57,59,-1,61,63,65,67,-1,-1,-1,-1,-1,-1,-1,-1,-1,-1,-1,-1,-1,-1,-1,-1,-1,-1,-1,-1,-1,-1,-1,-1,-1,-1,-1,-1,-1,-1],"loss_changes":[1.8743828E1,2.016658E1,1.2540344E1,1.3521004E0,2.12786E1,5.6829987E0,0E0,1.2385254E0,0E0,2.320356E1,9.905578E0,3.721302E0,7.1231494E0,0E0,1.026659E0,2.202904E1,9.037483E0,9.190409E0,0E0,7.66101E0,3.6279793E0,1.0261128E1,5.063953E0,4.8842812E-1,1.0289984E0,1.5873284E1,1.9802355E1,9.359335E0,4.909725E0,1.0958179E1,6.8906355E0,6.6896534E-1,4.1287303E-1,3.0870233E0,0E0,4.813813E0,2.2073936E-1,5.7676125E-1,6.084649E0,0E0,0E0,0E0,0E0,0E0,0E0,0E0,0E0,0E0,0E0,0E0,0E0,0E0,0E0,0E0,0E0,0E0,0E0,0E0,0E0,0E0,0E0,0E0,0E0,0E0,0E0,0E0,0E0,0E0,0E0],"parents":[2147483647,0,0,1,1,2,2,3,3,4,4,5,5,7,7,9,9,10,10,11,11,12,12,14,14,15,15,16,16,17,17,19,19,20,20,21,21,22,22,23,23,24,24,25,25,26,26,27,27,28,28,29,29,30,30,31,31,32,32,33,33,35,35,36,36,37,37,38,38],"right_children":[2,4,6,8,10,12,-1,14,-1,16,18,20,22,-1,24,26,28,30,-1,32,34,36,38,40,42,44,46,48,50,52,54,56,58,60,-1,62,64,66,68,-1,-1,-1,-1,-1,-1,-1,-1,-1,-1,-1,-1,-1,-1,-1,-1,-1,-1,-1,-1,-1,-1,-1,-1,-1,-1,-1,-1,-1,-1],"split_conditions":[2.9752545E2,8.656139E0,4.744E0,5.056702E1,1.2496906E1,4.17099E1,3.444028E-1,1.033E0,5.5624362E-2,2.1606169E1,3.7638E4,4.327E0,8.870416E0,2.482643E-2,3.1458414E2,5.3681116E0,7.5492997E0,6.845E2,-2.9292756E-1,1.3992E1,5.839E3,4.608E0,1.1297451E1,-6.2E-1,2.930557E2,2.2082963E0,2.6E1,3.41062E0,1.3450507E2,1.2808E1,-5.2E-1,4.048004E1,2.9849457E2,2.9907828E2,-4.7486746E-1,1.7678581E2,2.9871152E2,4.576E0,2.3442305E1,-3.4684025E-2,-2.8795543E-1,-1.7601563E-1,1.2046354E-1,-9.463719E-2,9.4698995E-2,1.1147046E-2,-3.4967723E-1,1.2616763E-1,-9.882602E-2,1.2900808E-2,2.4228552E-1,3.940101E-2,-3.201524E-1,-3.1193465E-1,1.2451062E-2,-7.291712E-2,-3.0134007E-1,3.036003E-1,3.8211662E-2,-2.8640357E-1,1.7973017E-2,-1.4303513E-1,1.5951633E-1,-1.4924937E-1,-4.9176294E-1,-3.4133065E-1,-5.219598E-2,1.773267E-1,-1.4238764E-1],"split_indices":[12,5,8,13,4,13,0,2,0,5,3,8,0,0,1,4,0,3,0,14,7,2,5,9,12,0,6,2,1,14,9,13,12,12,0,5,12,2,4,0,0,0,0,0,0,0,0,0,0,0,0,0,0,0,0,0,0,0,0,0,0,0,0,0,0,0,0,0,0],"split_type":[0,0,0,0,0,0,0,0,0,0,0,0,0,0,0,0,0,0,0,0,0,0,0,0,0,0,0,0,0,0,0,0,0,0,0,0,0,0,0,0,0,0,0,0,0,0,0,0,0,0,0,0,0,0,0,0,0,0,0,0,0,0,0,0,0,0,0,0,0],"sum_hessian":[7.208152E2,6.200114E2,1.0080379E2,2.797561E1,5.9203577E2,9.68978E1,3.9059892E0,2.692547E1,1.0501404E0,4.321711E2,1.5986469E2,3.2880375E1,6.4017426E1,1.2684375E0,2.5657034E1,2.5679684E2,1.7537428E2,1.4460255E2,1.5262122E1,1.1015802E1,2.1864573E1,3.770236E1,2.6315067E1,2.3358788E1,2.2982452E0,2.0316086E2,5.3635975E1,9.558921E1,7.978507E1,3.12619E1,1.1334065E2,7.8430715E0,3.1727312E0,1.3585788E1,8.278785E0,2.9635397E1,8.06696E0,3.4850655E0,2.2830002E1,1.0091568E0,2.2349632E1,1.2560385E0,1.0422066E0,5.3254757E1,1.499061E2,2.7232525E1,2.6403452E1,7.5100586E1,2.0488625E1,9.65375E0,7.013132E1,1.1869603E1,1.9392298E1,5.230361E0,1.081103E2,2.3696797E0,5.4733915E0,2.152394E0,1.0203372E0,9.5543785E0,4.0314093E0,2.470758E1,4.927816E0,1.3162104E0,6.7507496E0,2.1970146E0,1.2880509E0,1.5853333E1,6.976669E0],"tree_param":{"num_deleted":"0","num_feature":"15","num_nodes":"69","size_leaf_vector":"1"}},{"base_weights":[-2.7223052E-2,-9.6296936E-2,2.8425646E-1,-1.6056405E-1,2.8228945E-1,5.317656E-1,2.4339719E-2,-8.6511594E-1,-1.2670073E-1,3.5232076E-1,-1.0275879E0,6.430657E-1,-1.0114078E-1,3.0574068E-1,-2.400717E-1,-1.0539068E0,-2.9334E-1,1.7975023E-1,-2.0683052E-1,5.6471485E-1,-1.2241595E-1,-4.0283772E-1,6.006171E-3,-4.9216458E-1,7.050643E-1,5.1627797E-1,-4.7624502E-1,-5.744519E-1,5.812793E-1,6.0211205E-1,-4.4205627E-1,-8.1096E-2,-1.0898728E0,-2.4312167E-1,2.2494806E-1,4.2726272E-1,-3.1415808E-1,7.188233E-3,-3.9126822E-1,-5.641631E-1,6.531237E-1,-1.0063171E0,2.212626E-1,-3.3188543E-1,1.1098058E-1,7.428624E-1,-1.7142722E-1,2.3451991E-1,-3.4765482E-2,-1.2058723E0,1.16715044E-1,1.24976896E-1,-8.887341E-1,7.27826E-1,-3.712137E-1,-1.0249644E-1,9.235907E-1,-6.79019E-2,-9.4976544E-1,-3.3835334E-1,-9.700411E-2,-2.0636086E-1,1.6751553E-1,1.8800955E-2,-3.3929902E-1,8.8759944E-2,-6.737506E-2,-1.8608448E-1,-5.4985747E-2,2.1102816E-2,-2.4947658E-1,-1.7400816E-1,2.1688339E-1,-3.766986E-1,6.0013693E-2,1.6344844E-1,-1.1174845E-1,2.4506311E-1,7.904374E-3,2.5724147E-2,-5.6121385E-1,2.3228197E-1,-1.669574E-1,-7.6358095E-2,1.3895075E-1,-4.3408856E-1,-9.6141204E-2,1.2714633E-1,3.0732605E-1,-2.461061E-1,1.08059555E-1,3.1063017E-1,7.344802E-2,-2.1866159E-1,7.7603325E-2,-5.657008E-1,-1.10970736E-1],"categories":[],"categories_nodes":[],"categories_segments":[],"categories_sizes":[],"default_left":[0,0,0,0,0,0,0,0,0,0,0,0,0,0,0,0,0,0,0,0,0,0,0,0,0,0,0,0,0,0,0,0,0,0,0,0,0,0,0,0,0,0,0,0,0,0,0,0,0,0,0,0,0,0,0,0,0,0,0,0,0,0,0,0,0,0,0,0,0,0,0,0,0,0,0,0,0,0,0,0,0,0,0,0,0,0,0,0,0,0,0,0,0,0,0,0,0],"id":12,"left_children":[1,3,5,7,9,11,13,15,17,19,21,23,25,27,29,31,33,35,37,39,41,-1,-1,43,45,47,49,51,53,55,57,-1,59,-1,-1,61,63,65,67,69,71,73,75,-1,-1,77,-1,-1,-1,79,81,83,85,87,89,-1,91,93,95,-1,-1,-1,-1,-1,-1,-1,-1,-1,-1,-1,-1,-1,-1,-1,-1,-1,-1,-1,-1,-1,-1,-1,-1,-1,-1,-1,-1,-1,-1,-1,-1,-1,-1,-1,-1,-1,-1],"loss_changes":[1.4757357E1,1.3697603E1,7.997676E0,1.13501425E1,7.864997E0,4.5546722E0,4.67061E0,2.050087E0,1.1319775E1,7.9728327E0,1.481895E0,4.171507E0,2.6535408E0,7.6997375E0,5.7801642E0,1.575718E-1,4.281313E0,1.1842271E1,1.4398438E1,5.791195E0,7.832601E0,0E0,0E0,2.210832E0,2.930334E0,8.304317E-1,3.1636755E0,1.813288E0,3.5681996E0,2.3464139E0,5.011471E0,0E0,7.2229385E-2,0E0,0E0,9.774841E0,1.0089562E1,1.1426785E1,9.217293E0,8.1913936E-1,4.7976475E0,2.4150367E0,3.8258133E0,0E0,0E0,2.676611E0,0E0,0E0,0E0,2.9262056E0,2.540936E0,5.385432E-1,1.2702918E0,1.442605E0,1.5479963E0,0E0,1.4603567E-1,3.7417796E0,5.4132977E0,0E0,0E0,0E0,0E0,0E0,0E0,0E0,0E0,0E0,0E0,0E0,0E0,0E0,0E0,0E0,0E0,0E0,0E0,0E0,0E0,0E0,0E0,0E0,0E0,0E0,0E0,0E0,0E0,0E0,0E0,0E0,0E0,0E0,0E0,0E0,0E0,0E0,0E0],"parents":[2147483647,0,0,1,1,2,2,3,3,4,4,5,5,6,6,7,7,8,8,9,9,10,10,11,11,12,12,13,13,14,14,15,15,16,16,17,17,18,18,19,19,20,20,23,23,24,24,25,25,26,26,27,27,28,28,29,29,30,30,32,32,35,35,36,36,37,37,38,38,39,39,40,40,41,41,42,42,45,45,49,49,50,50,51,51,52,52,53,53,54,54,56,56,57,57,58,58],"right_children":[2,4,6,8,10,12,14,16,18,20,22,24,26,28,30,32,34,36,38,40,42,-1,-1,44,46,48,50,52,54,56,58,-1,60,-1,-1,62,64,66,68,70,72,74,76,-1,-1,78,-1,-1,-1,80,82,84,86,88,90,-1,92,94,96,-1,-1,-1,-1,-1,-1,-1,-1,-1,-1,-1,-1,-1,-1,-1,-1,-1,-1,-1,-1,-1,-1,-1,-1,-1,-1,-1,-1,-1,-1,-1,-1,-1,-1,-1,-1,-1,-1],"split_conditions":[1.4E-1,4.821232E1,2.1E-1,3.722E0,2.9603778E2,1.536E0,1.4245E1,5.815E3,5.203E3,5.012447E1,6.026E0,2.8359668E2,2.9187134E2,5.233E3,2.865285E2,1.3179626E2,1.2496906E1,3.45028E0,1.4334E1,1.1955153E0,5.031691E1,-4.0283772E-1,6.006171E-3,4.376333E1,2.4079904E2,1.8E-1,1.3562306E2,5.0479045E0,6.336E3,1.891E0,3.391E0,-8.1096E-2,4.69299E1,-2.4312167E-1,2.2494806E-1,7.058912E-1,1.05E2,2.9165952E2,1.3700685E2,1.4346E0,-4.6E-1,2.961514E2,4.15E2,-3.3188543E-1,1.1098058E-1,1.193E3,-1.7142722E-1,2.3451991E-1,-3.4765482E-2,1.323132E2,2.8219137E1,1.3551671E2,2.796E2,4.513978E1,7.089E0,-1.0249644E-1,1.7500624E2,1.7525674E0,1.0405998E1,-3.3835334E-1,-9.700411E-2,-2.0636086E-1,1.6751553E-1,1.8800955E-2,-3.3929902E-1,8.8759944E-2,-6.737506E-2,-1.8608448E-1,-5.4985747E-2,2.1102816E-2,-2.4947658E-1,-1.7400816E-1,2.1688339E-1,-3.766986E-1,6.0013693E-2,1.6344844E-1,-1.1174845E-1,2.4506311E-1,7.904374E-3,2.5724147E-2,-5.6121385E-1,2.3228197E-1,-1.669574E-1,-7.6358095E-2,1.3895075E-1,-4.3408856E-1,-9.6141204E-2,1.2714633E-1,3.0732605E-1,-2.461061E-1,1.08059555E-1,3.1063017E-1,7.344802E-2,-2.1866159E-1,7.7603325E-2,-5.657008E-1,-1.10970736E-1],"split_indices":[9,13,9,8,1,10,14,7,7,13,2,12,12,7,12,1,4,2,14,0,13,0,0,13,0,9,1,4,7,2,2,0,13,0,0,0,6,12,1,2,9,12,6,0,0,6,0,0,0,1,5,1,3,13,2,0,1,0,0,0,0,0,0,0,0,0,0,0,0,0,0,0,0,0,0,0,0,0,0,0,0,0,0,0,0,0,0,0,0,0,0,0,0,0,0,0,0],"split_type":[0,0,0,0,0,0,0,0,0,0,0,0,0,0,0,0,0,0,0,0,0,0,0,0,0,0,0,0,0,0,0,0,0,0,0,0,0,0,0,0,0,0,0,0,0,0,0,0,0,0,0,0,0,0,0,0,0,0,0,0,0,0,0,0,0,0,0,0,0,0,0,0,0,0,0,0,0,0,0,0,0,0,0,0,0,0,0,0,0,0,0,0,0,0,0,0,0],"sum_hessian":[6.836347E2,5.6011426E2,1.23520424E2,4.793225E2,8.079174E1,6.273464E1,6.0785786E1,2.085574E1,4.584668E2,7.738543E1,3.4063096E0,5.333868E1,9.395957E0,2.937113E1,3.1414658E1,1.5044936E1,5.8108025E0,9.477249E1,3.6369427E2,5.3334427E1,2.4051003E1,2.4018664E0,1.0044432E0,2.4028459E0,5.0935833E1,3.4087772E0,5.9871798E0,6.743754E0,2.2627377E1,5.693669E0,2.572099E1,1.0339701E0,1.4010966E1,4.0342693E0,1.7765332E0,6.3223972E1,3.1548523E1,1.6879182E2,1.9490247E2,3.48273E0,4.9851696E1,6.19363E0,1.7857372E1,1.2378291E0,1.1650168E0,4.987697E1,1.058865E0,2.2340598E0,1.1747173E0,2.2208335E0,3.7663465E0,2.2775202E0,4.4662337E0,1.9814648E1,2.812729E0,1.4307237E0,4.262945E0,1.5460887E1,1.0260101E1,1.2900536E1,1.1104306E0,6.2052546E0,5.7018715E1,2.2220795E1,9.327727E0,7.504484E1,9.374699E1,9.181779E1,1.0308468E2,1.2511522E0,2.2315776E0,2.279778E0,4.757192E1,5.098871E0,1.0947589E0,1.1611916E1,6.245457E0,4.5080196E1,4.7967715E0,1.0506698E0,1.1701636E0,1.829444E0,1.9369023E0,1.1897862E0,1.0877339E0,1.4729804E0,2.9932535E0,1.09845705E1,8.830076E0,1.66729E0,1.1454389E0,3.2087536E0,1.0541914E0,4.705504E0,1.07553835E1,3.0635624E0,7.196539E0],"tree_param":{"num_deleted":"0","num_feature":"15","num_nodes":"97","size_leaf_vector":"1"}},{"base_weights":[-2.3843447E-2,2.2449705E-3,-8.112697E-1,-4.2189544E-1,5.3385034E-2,2.120638E-2,-8.697561E-1,-7.9853296E-1,-2.8374007E-1,1.8005118E-1,-1.4523469E-1,-2.3340013E-2,-9.124514E-1,-9.492535E-1,-2.3560776E-1,-6.551366E-1,-1.3090785E-1,1.22530274E-1,7.597421E-1,-8.5514843E-1,-5.793686E-2,-8.079276E-2,-2.8746367E-1,-3.2553148E-1,-4.1631708E-1,-2.1805505E-1,2.658955E-1,-7.472543E-1,2.4094192E-2,-3.3737555E-1,3.7448147E-1,-5.751471E-3,4.2571545E-1,9.8287225E-1,-4.7392603E-2,-1.3986251E0,-2.046573E-1,5.505129E-2,-4.254659E-1,-2.5741908E-1,6.2998496E-2,-3.5872832E-2,1.5769827E-1,-2.466214E-1,-6.281423E-2,-5.2412964E-2,-2.4639986E-1,2.4503058E-1,-2.452685E-1,2.7370496E-2,-3.47549E-1,2.1512866E-2,1.8474907E-1,9.211032E-2,3.3738792E-1,1.2072151E-1,-2.2255367E-1,-7.069934E-2,-5.7914287E-1,-2.4066895E-1,1.2885524E-1,7.4942075E-2,-7.965879E-2,-3.3694956E-1,-3.278312E-2],"categories":[],"categories_nodes":[],"categories_segments":[],"categories_sizes":[],"default_left":[0,0,0,0,0,0,0,0,0,0,0,0,0,0,0,0,0,0,0,0,0,0,0,0,0,0,0,0,0,0,0,0,0,0,0,0,0,0,0,0,0,0,0,0,0,0,0,0,0,0,0,0,0,0,0,0,0,0,0,0,0,0,0,0,0],"id":13,"left_children":[1,3,5,7,9,-1,11,13,15,17,19,-1,21,23,25,27,29,31,33,35,37,-1,-1,-1,39,-1,41,43,-1,45,47,49,51,53,55,57,59,61,63,-1,-1,-1,-1,-1,-1,-1,-1,-1,-1,-1,-1,-1,-1,-1,-1,-1,-1,-1,-1,-1,-1,-1,-1,-1,-1],"loss_changes":[1.3520809E1,1.3860778E1,1.1502304E0,3.3512821E0,1.4372111E1,0E0,6.008539E-1,1.2952166E0,2.8577404E0,1.1531632E1,1.3745794E1,0E0,2.9406166E-1,5.467129E-1,1.4524045E0,1.067339E0,4.090346E0,1.2384012E1,5.6796474E0,8.305454E0,8.299484E0,0E0,0E0,0E0,1.4041383E0,0E0,3.894112E-1,3.6352444E-1,0E0,2.0211253E0,6.7267666E0,2.522565E1,6.3268394E0,2.0066643E0,2.712489E0,7.6285915E0,4.9807186E0,9.63881E0,1.024057E1,0E0,0E0,0E0,0E0,0E0,0E0,0E0,0E0,0E0,0E0,0E0,0E0,0E0,0E0,0E0,0E0,0E0,0E0,0E0,0E0,0E0,0E0,0E0,0E0,0E0,0E0],"parents":[2147483647,0,0,1,1,2,2,3,3,4,4,6,6,7,7,8,8,9,9,10,10,12,12,13,13,14,14,15,15,16,16,17,17,18,18,19,19,20,20,24,24,26,26,27,27,29,29,30,30,31,31,32,32,33,33,34,34,35,35,36,36,37,37,38,38],"right_children":[2,4,6,8,10,-1,12,14,16,18,20,-1,22,24,26,28,30,32,34,36,38,-1,-1,-1,40,-1,42,44,-1,46,48,50,52,54,56,58,60,62,64,-1,-1,-1,-1,-1,-1,-1,-1,-1,-1,-1,-1,-1,-1,-1,-1,-1,-1,-1,-1,-1,-1,-1,-1,-1,-1],"split_conditions":[2.8869E4,1.0820939E1,3.844E3,4.109082E1,7.974245E0,2.120638E-2,1.0834E1,7E-2,8.138594E0,3.7942986E1,2.6684687E1,-2.3340013E-2,8.0896845E0,1.5532E1,9.145119E0,4.781E0,1.4615285E2,1.2643304E1,8.887E2,6.8057E0,1.524E1,-8.079276E-2,-2.8746367E-1,-3.2553148E-1,3.869101E1,-2.1805505E-1,1.332849E2,1.4E-1,2.4094192E-2,2.961036E2,6.1083355E0,6.213E0,1.4754033E1,1.763E0,3.23E2,1.3688345E2,4.30563E1,1.042E0,1.3966383E2,-2.5741908E-1,6.2998496E-2,-3.5872832E-2,1.5769827E-1,-2.466214E-1,-6.281423E-2,-5.2412964E-2,-2.4639986E-1,2.4503058E-1,-2.452685E-1,2.7370496E-2,-3.47549E-1,2.1512866E-2,1.8474907E-1,9.211032E-2,3.3738792E-1,1.2072151E-1,-2.2255367E-1,-7.069934E-2,-5.7914287E-1,-2.4066895E-1,1.2885524E-1,7.4942075E-2,-7.965879E-2,-3.3694956E-1,-3.278312E-2],"split_indices":[3,5,7,13,4,0,14,9,5,5,5,0,4,14,5,8,1,0,3,2,14,0,0,0,13,0,1,9,0,12,4,2,5,2,6,1,13,11,1,0,0,0,0,0,0,0,0,0,0,0,0,0,0,0,0,0,0,0,0,0,0,0,0,0,0],"split_type":[0,0,0,0,0,0,0,0,0,0,0,0,0,0,0,0,0,0,0,0,0,0,0,0,0,0,0,0,0,0,0,0,0,0,0,0,0,0,0,0,0,0,0,0,0,0,0,0,0,0,0,0,0,0,0,0,0,0,0,0,0,0,0,0,0],"sum_hessian":[6.5709186E2,6.369849E2,2.0106958E1,6.7759346E1,5.692256E2,1.2374815E0,1.8869476E1,1.6901825E1,5.085752E1,3.4762653E2,2.2159906E2,1.109605E0,1.7759872E1,1.279085E1,4.1109757E0,1.3868687E1,3.698884E1,3.1734842E2,3.0278116E1,2.3302807E1,1.9829625E2,1.6370612E0,1.612281E1,9.367007E0,3.423842E0,1.8497396E0,2.2612362E0,1.2310681E1,1.5580047E0,2.649658E1,1.0492255E1,2.2368521E2,9.366321E1,2.3550041E1,6.7280746E0,1.2069115E1,1.1233692E1,1.5231944E2,4.597681E1,1.7907653E0,1.6330767E0,1.1276171E0,1.1336192E0,1.0343545E1,1.9671364E0,2.084968E1,5.6469016E0,7.882431E0,2.6098244E0,2.0717532E2,1.6509884E1,3.320694E1,6.0456264E1,4.6320224E0,1.8918018E1,4.338542E0,2.3895326E0,4.2402864E0,7.828829E0,5.6473184E0,5.586374E0,9.489228E1,5.7427155E1,1.3542302E1,3.243451E1],"tree_param":{"num_deleted":"0","num_feature":"15","num_nodes":"65","size_leaf_vector":"1"}},{"base_weights":[-2.2174062E-2,1.0137802E-2,-5.817289E-1,-9.187401E-1,3.072233E-2,-1.7599504E-1,-1.040523E0,-1.5019944E-1,-1.0692163E0,8.7013505E-2,-3.2294083E-1,-5.922372E-1,2.0259808E-1,3.1757992E-4,-3.3434832E-1,1.2569457E-1,-1.7760783E-1,-1.1925626E0,5.034716E-3,2.3981978E-1,-2.8217155E-2,-7.44179E-2,-9.1363055E-1,8.5654356E-2,-7.799932E-1,-5.817309E-1,4.4415972E-1,-1.3518584E-1,-3.8300303E-1,8.4872276E-2,5.0205743E-1,-2.4803108E-1,1.5333378E-1,6.2340975E-1,-2.516599E-1,-4.523286E-1,-3.1811303E-1,-8.9308935E-1,-2.5675306E-2,-2.8454999E-2,-2.3421551E-1,-1.2869646E-1,6.7970365E-1,1.3369994E-1,-2.7215814E-2,1.7612894E-1,-1.7153746E-1,-4.4978047E-3,-1.5132263E-1,6.9039226E-2,-1.4877823E-1,-2.2212958E-1,2.9475966E-1,-1.8469226E-1,7.673061E-3,8.071786E-2,-2.4191014E-1,-6.760717E-2,-3.0303589E-1,2.9875225E-1,-1.6827213E-2],"categories":[],"categories_nodes":[],"categories_segments":[],"categories_sizes":[],"default_left":[0,0,0,0,0,0,0,0,0,0,0,0,0,0,0,0,0,0,0,0,0,0,0,0,0,0,0,0,0,0,0,0,0,0,0,0,0,0,0,0,0,0,0,0,0,0,0,0,0,0,0,0,0,0,0,0,0,0,0,0,0],"id":14,"left_children":[1,3,5,7,9,11,13,15,17,19,21,23,25,-1,-1,-1,-1,27,-1,29,31,33,35,-1,37,39,41,-1,-1,43,45,47,49,51,53,55,-1,57,-1,-1,-1,-1,59,-1,-1,-1,-1,-1,-1,-1,-1,-1,-1,-1,-1,-1,-1,-1,-1,-1,-1],"loss_changes":[1.1449492E1,1.1488337E1,6.2521973E0,1.3458977E0,1.1720843E1,3.2007904E0,1.2355499E0,1.0770166E0,1.4573755E0,8.942382E0,1.1802223E1,1.7993469E0,2.339279E0,0E0,0E0,0E0,0E0,2.6924133E-2,0E0,8.826456E0,1.161931E1,7.3309255E0,1.1353436E0,0E0,5.635476E-1,2.1844757E-1,2.1351628E0,0E0,0E0,8.808834E0,7.7202454E0,7.858037E0,8.069632E0,6.6224813E0,4.7551317E0,2.1328495E0,0E0,3.116951E-1,0E0,0E0,0E0,0E0,1.7880046E0,0E0,0E0,0E0,0E0,0E0,0E0,0E0,0E0,0E0,0E0,0E0,0E0,0E0,0E0,0E0,0E0,0E0,0E0],"parents":[2147483647,0,0,1,1,2,2,3,3,4,4,5,5,6,6,7,7,8,8,9,9,10,10,11,11,12,12,17,17,19,19,20,20,21,21,22,22,24,24,25,25,26,26,29,29,30,30,31,31,32,32,33,33,34,34,35,35,37,37,42,42],"right_children":[2,4,6,8,10,12,14,16,18,20,22,24,26,-1,-1,-1,-1,28,-1,30,32,34,36,-1,38,40,42,-1,-1,44,46,48,50,52,54,56,-1,58,-1,-1,-1,-1,60,-1,-1,-1,-1,-1,-1,-1,-1,-1,-1,-1,-1,-1,-1,-1,-1,-1,-1],"split_conditions":[1.2689E1,5E0,3.5E1,6.1083355E0,7.65E2,1.153E0,2.8445453E2,1.3965E1,4.39648E2,5.3681116E0,2.227E0,1.3755E1,5.475E3,3.1757992E-4,-3.3434832E-1,1.2569457E-1,-1.7760783E-1,8E-1,5.034716E-3,1.6535355E1,1.4569736E2,3.6896265E0,4.203E0,8.5654356E-2,4.2142847E2,1.660684E1,4E0,-1.3518584E-1,-3.8300303E-1,4.381E0,6.3994E0,1.4307E1,2.1351065E2,1.0916952E1,1.8328804E1,9.04E2,-3.1811303E-1,2.897523E2,-2.5675306E-2,-2.8454999E-2,-2.3421551E-1,-1.2869646E-1,1.737E0,1.3369994E-1,-2.7215814E-2,1.7612894E-1,-1.7153746E-1,-4.4978047E-3,-1.5132263E-1,6.9039226E-2,-1.4877823E-1,-2.2212958E-1,2.9475966E-1,-1.8469226E-1,7.673061E-3,8.071786E-2,-2.4191014E-1,-6.760717E-2,-3.0303589E-1,2.9875225E-1,-1.6827213E-2],"split_indices":[2,6,6,4,6,10,12,14,1,4,2,2,7,0,0,0,0,11,0,5,1,4,8,0,0,4,6,0,0,8,2,14,4,5,5,6,0,12,0,0,0,0,10,0,0,0,0,0,0,0,0,0,0,0,0,0,0,0,0,0,0],"split_type":[0,0,0,0,0,0,0,0,0,0,0,0,0,0,0,0,0,0,0,0,0,0,0,0,0,0,0,0,0,0,0,0,0,0,0,0,0,0,0,0,0,0,0,0,0,0,0,0,0,0,0,0,0,0,0,0,0,0,0,0,0],"sum_hessian":[6.319331E2,5.983622E2,3.357094E1,1.2026644E1,5.863355E2,1.8549938E1,1.5021E1,2.296366E0,9.730277E0,5.064757E2,7.9859795E1,8.566852E0,9.983088E0,1.0613886E0,1.3959612E1,1.0261446E0,1.2702212E0,8.649728E0,1.0805494E0,2.172721E2,2.8920364E2,5.7002792E1,2.2856998E1,1.4178402E0,7.149011E0,2.0190864E0,7.964001E0,1.5281E0,7.1216283E0,1.3740671E2,7.986539E1,1.3065097E2,1.5855266E2,1.1035831E1,4.596696E1,6.501546E0,1.6355453E1,5.901705E0,1.2473065E0,1.0142037E0,1.0048826E0,1.517489E0,6.446512E0,4.4478046E1,9.292866E1,7.44249E1,5.4404907E0,6.899522E1,6.165576E1,1.4235942E2,1.6193237E1,2.0789204E0,8.956911E0,1.9346512E1,2.662045E1,2.2193766E0,4.2821693E0,1.3164052E0,4.5852995E0,4.2619324E0,2.1845798E0],"tree_param":{"num_deleted":"0","num_feature":"15","num_nodes":"61","size_leaf_vector":"1"}},{"base_weights":[-2.1722352E-2,6.9337846E-3,-5.911361E-1,-4.0693876E-1,4.5529895E-2,2.3984265E-1,-7.531293E-1,-8.701634E-1,-4.3369547E-2,8.047667E-2,-4.281585E-1,2.0378883E-1,-2.224937E-1,-3.463322E-1,-8.58925E-1,1.6190535E-1,-9.9161786E-1,-3.400826E-1,3.8401508E-1,-2.0142144E-1,1.5481748E-1,-9.323934E-1,-1.816686E-1,5.697875E-2,-1.7822182E-1,3.7998495E-1,-2.9884133E-1,-9.9522793E-1,-2.6379457E-1,-1.2544248E-1,2.0292631E-1,-1.1891696E0,-5.218359E-1,1.0475735E-1,-9.515953E-1,6.6387886E-1,-2.2220829E-1,-3.2462248E-1,3.689443E-1,1.891583E-1,-4.5522112E-1,1.952942E-2,-1.1555139E0,-8.505021E-1,8.0608827E-4,-1.4283639E-1,3.019579E-1,-1.0665296E0,-4.0730482E-1,-6.918324E-1,1.7758662E-1,-1.0806375E-1,-4.164627E-1,3.615473E-3,-2.670926E-1,2.3621516E-1,-2.150972E-1,-3.0607557E-2,-3.2658467E-1,-2.0025189E-1,2.730743E-1,1.012252E-1,-1.2139599E-1,1.8147132E-1,-1.5596996E-1,6.561451E-2,-1.3660063E-1,5.8573507E-2,-1.9594006E-1,1.6059805E-1,-1.5680681E-1,-2.255318E-2,-3.9420536E-1,-3.1475365E-1,-8.371888E-3,1.1427855E-1,-9.513356E-2,-1.3190278E-1,-3.4100336E-1,-6.8573128E-3,-1.7096783E-1,-5.0242484E-2,-2.5544372E-1],"categories":[],"categories_nodes":[],"categories_segments":[],"categories_sizes":[],"default_left":[0,0,0,0,0,0,0,0,0,0,0,0,0,0,0,0,0,0,0,0,0,0,0,0,0,0,0,0,0,0,0,0,0,0,0,0,0,0,0,0,0,0,0,0,0,0,0,0,0,0,0,0,0,0,0,0,0,0,0,0,0,0,0,0,0,0,0,0,0,0,0,0,0,0,0,0,0,0,0,0,0,0,0],"id":15,"left_children":[1,3,5,7,9,11,13,15,17,19,21,-1,23,25,27,29,31,33,35,37,39,41,43,-1,-1,45,-1,47,49,-1,-1,51,53,55,57,59,-1,61,63,65,67,69,71,73,75,-1,-1,77,79,81,-1,-1,-1,-1,-1,-1,-1,-1,-1,-1,-1,-1,-1,-1,-1,-1,-1,-1,-1,-1,-1,-1,-1,-1,-1,-1,-1,-1,-1,-1,-1,-1,-1],"loss_changes":[9.984421E0,9.336506E0,4.1272335E0,8.359231E0,8.881963E0,1.2770174E0,7.688513E-1,2.9022217E0,3.8064284E0,1.0479844E1,4.4143653E0,0E0,6.4209944E-1,3.5828736E0,1.2776794E0,1.226688E0,1.2086296E0,4.898002E0,4.378317E0,7.4616113E0,8.36328E0,2.5430355E0,3.1754284E0,0E0,0E0,2.5871332E0,0E0,1.9810009E-1,2.203988E0,0E0,0E0,1.6602325E0,1.5091012E0,6.797798E0,7.6516294E-1,4.023717E0,0E0,4.7171583E0,4.305144E0,7.238367E0,2.876007E0,1.1850383E0,1.5502787E0,8.8212585E-1,2.7113066E0,0E0,0E0,6.477642E-2,1.9010782E-1,1.6936398E-1,0E0,0E0,0E0,0E0,0E0,0E0,0E0,0E0,0E0,0E0,0E0,0E0,0E0,0E0,0E0,0E0,0E0,0E0,0E0,0E0,0E0,0E0,0E0,0E0,0E0,0E0,0E0,0E0,0E0,0E0,0E0,0E0,0E0],"parents":[2147483647,0,0,1,1,2,2,3,3,4,4,5,5,6,6,7,7,8,8,9,9,10,10,12,12,13,13,14,14,15,15,16,16,17,17,18,18,19,19,20,20,21,21,22,22,25,25,27,27,28,28,31,31,32,32,33,33,34,34,35,35,37,37,38,38,39,39,40,40,41,41,42,42,43,43,44,44,47,47,48,48,49,49],"right_children":[2,4,6,8,10,12,14,16,18,20,22,-1,24,26,28,30,32,34,36,38,40,42,44,-1,-1,46,-1,48,50,-1,-1,52,54,56,58,60,-1,62,64,66,68,70,72,74,76,-1,-1,78,80,82,-1,-1,-1,-1,-1,-1,-1,-1,-1,-1,-1,-1,-1,-1,-1,-1,-1,-1,-1,-1,-1,-1,-1,-1,-1,-1,-1,-1,-1,-1,-1,-1,-1],"split_conditions":[6.508E3,-4.2E-1,2.8832043E2,4.526E0,2.9871152E2,1.3355997E2,5.5E1,3.7609081E0,-5.2E-1,4.028487E1,2.9907828E2,2.0378883E-1,1.2196134E1,7.83E2,4.303E0,1.603E2,1.257E0,6.5805106E0,4.54E2,1.7459732E2,2.7547394E2,6.7E1,3.032148E0,5.697875E-2,-1.7822182E-1,1.9236187E1,-2.9884133E-1,7.28E2,1.28E0,-1.2544248E-1,2.0292631E-1,-6.2E-1,1.793E0,2.9329364E2,4.729E3,1.1423345E1,-2.2220829E-1,2.866089E2,2.2556792E2,2.1351065E2,1.3965E1,2.9887128E2,1.3027E1,1.340668E2,3.41062E0,-1.4283639E-1,3.019579E-1,6.574E3,1.2639E1,4.739108E0,1.7758662E-1,-1.0806375E-1,-4.164627E-1,3.615473E-3,-2.670926E-1,2.3621516E-1,-2.150972E-1,-3.0607557E-2,-3.2658467E-1,-2.0025189E-1,2.730743E-1,1.012252E-1,-1.2139599E-1,1.8147132E-1,-1.5596996E-1,6.561451E-2,-1.3660063E-1,5.8573507E-2,-1.9594006E-1,1.6059805E-1,-1.5680681E-1,-2.255318E-2,-3.9420536E-1,-3.1475365E-1,-8.371888E-3,1.1427855E-1,-9.513356E-2,-1.3190278E-1,-3.4100336E-1,-6.8573128E-3,-1.7096783E-1,-5.0242484E-2,-2.5544372E-1],"split_indices":[7,9,12,8,12,1,6,4,9,13,12,0,4,3,8,3,10,4,6,1,1,6,0,0,0,5,0,6,10,0,0,9,10,12,7,5,0,12,0,4,14,12,14,1,2,0,0,7,14,4,0,0,0,0,0,0,0,0,0,0,0,0,0,0,0,0,0,0,0,0,0,0,0,0,0,0,0,0,0,0,0,0,0],"split_type":[0,0,0,0,0,0,0,0,0,0,0,0,0,0,0,0,0,0,0,0,0,0,0,0,0,0,0,0,0,0,0,0,0,0,0,0,0,0,0,0,0,0,0,0,0,0,0,0,0,0,0,0,0,0,0,0,0,0,0,0,0,0,0,0,0,0,0,0,0,0,0,0,0,0,0,0,0,0,0,0,0,0,0],"sum_hessian":[6.1064435E2,5.8232623E2,2.8318142E1,4.885904E1,5.3346716E2,4.5414143E0,2.3776728E1,2.0872252E1,2.7986786E1,4.9758734E2,3.5879833E1,2.0877383E0,2.4536757E0,5.7893963E0,1.7987331E1,2.1625724E0,1.8709679E1,1.6639225E1,1.1347561E1,1.0348101E2,3.9410632E2,1.0866982E1,2.501285E1,1.3946195E0,1.0590562E0,2.9298277E0,2.8595688E0,1.4088379E1,3.8989527E0,1.1045978E0,1.0579746E0,1.2093021E1,6.6166577E0,1.0112015E1,6.5272107E0,9.414631E0,1.9329296E0,8.545358E1,1.8027426E1,3.7375644E2,2.03499E1,2.236716E0,8.630267E0,4.5767026E0,2.0436148E1,1.3395485E0,1.5902791E0,1.1838567E1,2.2498124E0,2.7266548E0,1.172298E0,2.885455E0,9.207566E0,3.096855E0,3.5198028E0,5.5464196E0,4.565595E0,1.14881E0,5.378401E0,1.2031872E0,8.211444E0,8.869148E0,7.6584435E1,1.4498089E1,3.5293365E0,3.579991E2,1.5757327E1,4.7504315E0,1.5599467E1,1.1528002E0,1.0839158E0,1.292831E0,7.3374357E0,3.4644945E0,1.112208E0,9.217242E0,1.12189045E1,1.9229194E0,9.9156475E0,1.007683E0,1.2421294E0,1.1146464E0,1.6120083E0],"tree_param":{"num_deleted":"0","num_feature":"15","num_nodes":"83","size_leaf_vector":"1"}},{"base_weights":[-2.2488192E-2,-8.264604E-1,-4.8435014E-3,2.4466714E-2,-9.1304344E-1,9.699992E-3,-2.7448237E-1,-3.0628034E-1,6.3534523E-3,-6.9081455E-1,2.8436227E-2,-1.8768677E-1,-3.037222E-1,4.4577364E-2,-7.7709335E-1,-7.847456E-1,7.6430976E-1,-5.353991E-1,6.578397E-2,-2.9261512E-1,-1.04686385E-2,-3.1111044E-1,2.379521E-2,2.851937E-1,7.50954E-2,-1.8923274E-1,7.699555E-2,1.1680988E-1,4.4514025E-3,2.087596E-1,-1.8842253E-1],"categories":[],"categories_nodes":[],"categories_segments":[],"categories_sizes":[],"default_left":[0,0,0,0,0,0,0,0,0,0,0,0,0,0,0,0,0,0,0,0,0,0,0,0,0,0,0,0,0,0,0],"id":16,"left_children":[1,3,5,-1,7,9,-1,-1,-1,11,13,15,-1,17,19,21,23,25,27,-1,29,-1,-1,-1,-1,-1,-1,-1,-1,-1,-1],"loss_changes":[8.440794E0,1.0790901E0,7.7323337E0,0E0,1.2057562E0,7.570861E0,0E0,0E0,0E0,2.2413378E0,7.332805E0,4.628087E0,0E0,6.814898E0,1.6742082E0,1.1392848E0,7.217622E-2,1.639039E0,8.775393E0,0E0,1.8713702E0,0E0,0E0,0E0,0E0,0E0,0E0,0E0,0E0,0E0,0E0],"parents":[2147483647,0,0,1,1,2,2,4,4,5,5,9,9,10,10,11,11,13,13,14,14,15,15,16,16,17,17,18,18,20,20],"right_children":[2,4,6,-1,8,10,-1,-1,-1,12,14,16,-1,18,20,22,24,26,28,-1,30,-1,-1,-1,-1,-1,-1,-1,-1,-1,-1],"split_conditions":[3.284E0,2.8571854E2,3.7638E4,2.4466714E-2,5.307E3,6.233938E-1,-2.7448237E-1,-3.0628034E-1,6.3534523E-3,5.288E3,2.018E1,7.75E-1,-3.037222E-1,8.656139E0,6.226E3,4.356389E1,1.3167166E2,4.781E0,3.793743E0,-2.9261512E-1,1.3E1,-3.1111044E-1,2.379521E-2,2.851937E-1,7.50954E-2,-1.8923274E-1,7.699555E-2,1.1680988E-1,4.4514025E-3,2.087596E-1,-1.8842253E-1],"split_indices":[8,12,3,0,7,0,0,0,0,7,2,11,0,5,7,13,1,8,4,0,6,0,0,0,0,0,0,0,0,0,0],"split_type":[0,0,0,0,0,0,0,0,0,0,0,0,0,0,0,0,0,0,0,0,0,0,0,0,0,0,0,0,0,0,0],"sum_hessian":[5.942976E2,1.177846E1,5.825191E2,1.030407E0,1.0748053E1,5.7433057E2,8.188544E0,9.552087E0,1.1959659E0,1.4026699E1,5.603039E2,6.08711E0,7.939589E0,5.502232E2,1.0080667E1,3.8488998E0,2.2382104E0,1.8553707E1,5.316695E2,7.7927375E0,2.2879295E0,2.8241265E0,1.0247734E0,1.0191911E0,1.2190192E0,1.6741373E1,1.8123354E0,7.141782E1,4.6025168E2,1.0081881E0,1.2797414E0],"tree_param":{"num_deleted":"0","num_feature":"15","num_nodes":"31","size_leaf_vector":"1"}},{"base_weights":[-2.0154996E-2,3.7956398E-3,-4.903906E-1,-4.54085E-2,2.534356E-1,1.7611253E-1,-6.2563217E-1,-9.4452225E-2,1.8276718E-1,4.087402E-1,-1.268073E-1,-1.1257403E-1,5.326301E-1,-8.427575E-1,-1.6170074E-1,-9.150939E-1,-7.429072E-2,4.246217E-1,1.547993E-2,7.414722E-1,1.4839675E-2,-8.801723E-1,1.5960844E-1,3.2209244E-1,-8.596795E-2,-5.391903E-1,-3.2788116E-1,5.084725E-1,-4.537517E-1,-3.045642E-1,-1.6954986E-2,7.545152E-2,-1.7317589E-1,-3.0613908E-1,5.791309E-1,-1.1178777E0,1.1252389E-1,-5.110149E-1,8.363866E-1,3.4468696E-1,-5.126315E-1,1.07558064E-1,-1.1302934E0,-2.9441446E-1,5.5738115E-1,-2.9064593E-1,-1.08267955E-1,-2.3232574E-2,2.618856E-1,1.0005527E-1,-6.8614703E-1,7.207205E-2,-9.458114E-2,-3.0778073E-2,-3.0024943E-1,-2.3408101E-1,8.197701E-2,-1.7167081E-1,1.9963168E-1,6.9405283E-3,-5.644917E-1,-6.56466E-2,1.1286339E-1,-3.0189112E-1,6.5036766E-2,-7.531843E-2,2.779609E-1,1.7481947E-1,-3.548681E-2,-2.873841E-1,1.1744157E-1,-4.0486008E-1,1.40561545E-2,1.0327526E-1,-2.4397558E-1,-1.3899131E-1,2.3683526E-1,-1.6403107E-1,1.5825842E-1,-9.201871E-2,-2.789709E-1],"categories":[],"categories_nodes":[],"categories_segments":[],"categories_sizes":[],"default_left":[0,0,0,0,0,0,0,0,0,0,0,0,0,0,0,0,0,0,0,0,0,0,0,0,0,0,0,0,0,0,0,0,0,0,0,0,0,0,0,0,0,0,0,0,0,0,0,0,0,0,0,0,0,0,0,0,0,0,0,0,0,0,0,0,0,0,0,0,0,0,0,0,0,0,0,0,0,0,0,0,0],"id":17,"left_children":[1,3,5,7,9,11,13,15,17,19,21,-1,23,25,27,29,31,33,35,37,39,41,43,-1,-1,45,-1,47,49,-1,-1,51,53,55,57,59,61,63,65,67,69,-1,71,73,75,-1,77,-1,-1,-1,79,-1,-1,-1,-1,-1,-1,-1,-1,-1,-1,-1,-1,-1,-1,-1,-1,-1,-1,-1,-1,-1,-1,-1,-1,-1,-1,-1,-1,-1,-1],"loss_changes":[6.5807204E0,6.8511477E0,2.6627336E0,5.231981E0,5.4748254E0,1.292229E0,2.257186E0,6.288928E0,3.342666E0,8.565537E0,6.051387E0,0E0,1.9865608E0,6.2191486E-1,1.9555521E0,7.269807E-1,5.5818834E0,3.9946442E0,5.6219497E0,4.642021E0,5.5676517E0,2.7906814E0,3.9014719E0,0E0,0E0,1.5944917E0,0E0,7.3951095E-1,1.4484783E0,0E0,0E0,9.751439E0,1.3147135E1,2.0139308E0,3.1884518E0,3.5579696E0,4.183455E0,1.3421613E0,3.500536E0,2.2358384E0,5.336542E0,0E0,1.7785873E0,3.6990619E0,3.0604277E0,0E0,1.8799409E0,0E0,0E0,0E0,2.2103572E-1,0E0,0E0,0E0,0E0,0E0,0E0,0E0,0E0,0E0,0E0,0E0,0E0,0E0,0E0,0E0,0E0,0E0,0E0,0E0,0E0,0E0,0E0,0E0,0E0,0E0,0E0,0E0,0E0,0E0,0E0],"parents":[2147483647,0,0,1,1,2,2,3,3,4,4,5,5,6,6,7,7,8,8,9,9,10,10,12,12,13,13,14,14,15,15,16,16,17,17,18,18,19,19,20,20,21,21,22,22,25,25,27,27,28,28,31,31,32,32,33,33,34,34,35,35,36,36,37,37,38,38,39,39,40,40,42,42,43,43,44,44,46,46,50,50],"right_children":[2,4,6,8,10,12,14,16,18,20,22,-1,24,26,28,30,32,34,36,38,40,42,44,-1,-1,46,-1,48,50,-1,-1,52,54,56,58,60,62,64,66,68,70,-1,72,74,76,-1,78,-1,-1,-1,80,-1,-1,-1,-1,-1,-1,-1,-1,-1,-1,-1,-1,-1,-1,-1,-1,-1,-1,-1,-1,-1,-1,-1,-1,-1,-1,-1,-1,-1,-1],"split_conditions":[6.487E3,4.7839E1,2.8832043E2,1.4E-1,5.012447E1,1.4254301E1,6.271E0,3.603E0,4.914818E0,1.4731E1,5.031691E1,-1.1257403E-1,1.3355997E2,6.706191E0,7.46E0,5.8036395E2,1.07E2,1.07262335E1,1.575E2,1E1,2.9372696E2,2.8881714E2,6.1082945E0,3.2209244E-1,-8.596795E-2,2.9381E0,-3.2788116E-1,2.9569476E2,3.92863E1,-3.045642E-1,-1.6954986E-2,1.2515E3,6.3994E0,5.416E3,2.832358E2,1.2808E1,1.0405998E1,1.7345167E1,1.1170518E1,1.0886E3,4.908947E1,1.07558064E-1,2.961514E2,1.323377E2,2.8908606E2,-2.9064593E-1,1.517209E1,-2.3232574E-2,2.618856E-1,1.0005527E-1,1.660137E2,7.207205E-2,-9.458114E-2,-3.0778073E-2,-3.0024943E-1,-2.3408101E-1,8.197701E-2,-1.7167081E-1,1.9963168E-1,6.9405283E-3,-5.644917E-1,-6.56466E-2,1.1286339E-1,-3.0189112E-1,6.5036766E-2,-7.531843E-2,2.779609E-1,1.7481947E-1,-3.548681E-2,-2.873841E-1,1.1744157E-1,-4.0486008E-1,1.40561545E-2,1.0327526E-1,-2.4397558E-1,-1.3899131E-1,2.3683526E-1,-1.6403107E-1,1.5825842E-1,-9.201871E-2,-2.789709E-1],"split_indices":[7,13,12,9,13,5,2,8,4,14,13,0,1,4,2,5,6,5,3,6,12,12,0,0,0,2,0,12,13,0,0,3,2,7,12,14,0,4,5,3,13,0,12,1,12,0,5,0,0,0,1,0,0,0,0,0,0,0,0,0,0,0,0,0,0,0,0,0,0,0,0,0,0,0,0,0,0,0,0,0,0],"split_type":[0,0,0,0,0,0,0,0,0,0,0,0,0,0,0,0,0,0,0,0,0,0,0,0,0,0,0,0,0,0,0,0,0,0,0,0,0,0,0,0,0,0,0,0,0,0,0,0,0,0,0,0,0,0,0,0,0,0,0,0,0,0,0,0,0,0,0,0,0,0,0,0,0,0,0,0,0,0,0,0,0],"sum_hessian":[5.831414E2,5.558234E2,2.7317976E1,4.6499152E2,9.083192E1,4.557132E0,2.2760845E1,3.8321085E2,8.178069E1,6.4438156E1,2.6393755E1,1.7689273E0,2.7882042E0,1.4948307E1,7.8125377E0,8.124583E0,3.7508624E2,3.2809E1,4.897169E1,3.4452972E1,2.9985184E1,6.6993265E0,1.969443E1,1.4921448E0,1.2960595E0,8.179065E0,6.769243E0,2.1463165E0,5.666221E0,7.1127195E0,1.0118635E0,1.4927518E2,2.2581108E2,5.554986E0,2.7254013E1,3.0328093E0,4.593888E1,2.1181388E0,3.2334835E1,1.8661798E1,1.1323385E1,1.0526701E0,5.646656E0,9.318274E0,1.0376156E1,3.4706154E0,4.7084494E0,1.1251397E0,1.0211767E0,1.1922362E0,4.473985E0,1.0526454E2,4.4010624E1,2.091028E2,1.670829E1,2.864342E0,2.6906438E0,1.5079178E0,2.5746096E1,1.6048981E0,1.4279112E0,2.0433092E1,2.550579E1,1.032702E0,1.0854367E0,2.3387134E0,2.9996122E1,1.2154011E1,6.507788E0,7.546706E0,3.7766788E0,4.6366496E0,1.0100064E0,4.3276405E0,4.990633E0,1.7375754E0,8.63858E0,2.8694444E0,1.839005E0,2.6333663E0,1.8406186E0],"tree_param":{"num_deleted":"0","num_feature":"15","num_nodes":"81","size_leaf_vector":"1"}},{"base_weights":[-1.8721055E-2,-1.2664375E-1,7.494791E-2,4.102574E-2,-3.948534E-1,2.8289512E-1,-5.4672476E-2,-2.8094292E-1,1.712038E-1,-8.232192E-1,-1.4626104E-1,5.4463756E-1,6.518047E-2,-8.932729E-1,-1.4396425E-2,-1.2385344E-2,-6.6732156E-1,2.5288174E-1,-6.8932825E-1,-4.2766082E-1,-1.2279094E0,-7.2082835E-1,4.5441445E-2,6.260466E-1,-2.7875516E-1,5.3215873E-1,-1.5664972E-1,-3.2470725E-2,-9.833069E-1,-7.421331E-1,2.8090704E-2,-6.4020514E-1,2.4140516E-1,1.3959928E-1,-1.078656E0,6.083496E-1,1.3067123E-1,-8.4694195E-1,9.9430524E-2,-5.2328664E-1,1.4708115E-1,-1.5081748E0,-3.3618158E-1,-9.646949E-1,1.7400594E-1,4.2073798E-1,-4.0007606E-1,8.806534E-1,3.1861606E-1,2.3513417E-1,-7.7161574E-1,6.665642E-1,-2.910922E-1,-4.165519E-1,2.6202375E-1,-3.142037E-1,-8.8414006E-2,-3.1590778E-1,8.516712E-2,-7.1615395E-3,9.6903867E-1,-2.6450583E-1,4.9456283E-2,1.0947035E-1,-2.3071492E-1,-1.427958E-1,2.1365206E-1,-9.4718866E-2,-3.3486164E-1,2.3948917E-2,2.4114634E-1,-4.8202902E-2,8.855245E-2,-6.890663E-3,-3.4859902E-1,-2.1802072E-1,-1.4556183E-2,-1.0152154E-4,-4.969837E-1,-2.6068622E-1,7.08147E-2,-3.795974E-1,-4.5334054E-3,2.1894795E-1,-1.3531467E-1,1.983073E-6,2.4927817E-1,2.2383505E-1,-1.5618962E-1,2.839267E-1,-3.1834777E-2,1.5781617E-1,-2.515293E-1,6.841612E-2,-3.6658177E-1,-1.3594486E-1,2.4497387E-1,-1.5416756E-1,2.4719633E-1,1.8546784E-1,-1.1990957E-1,2.0243762E-1,-1.3753442E-1,-3.7508857E-2,7.16255E-2,2.8967999E-2,3.836552E-1],"categories":[],"categories_nodes":[],"categories_segments":[],"categories_sizes":[],"default_left":[0,0,0,0,0,0,0,0,0,0,0,0,0,0,0,0,0,0,0,0,0,0,0,0,0,0,0,0,0,0,0,0,0,0,0,0,0,0,0,0,0,0,0,0,0,0,0,0,0,0,0,0,0,0,0,0,0,0,0,0,0,0,0,0,0,0,0,0,0,0,0,0,0,0,0,0,0,0,0,0,0,0,0,0,0,0,0,0,0,0,0,0,0,0,0,0,0,0,0,0,0,0,0,0,0,0,0],"id":18,"left_children":[1,3,5,7,9,11,13,15,17,19,21,23,25,27,29,31,33,35,37,39,41,43,45,47,49,51,53,-1,55,57,59,61,63,65,67,69,71,73,-1,75,-1,77,79,81,83,85,87,89,91,-1,93,95,-1,97,99,-1,-1,-1,101,103,105,-1,-1,-1,-1,-1,-1,-1,-1,-1,-1,-1,-1,-1,-1,-1,-1,-1,-1,-1,-1,-1,-1,-1,-1,-1,-1,-1,-1,-1,-1,-1,-1,-1,-1,-1,-1,-1,-1,-1,-1,-1,-1,-1,-1,-1,-1],"loss_changes":[5.7356153E0,1.1868891E1,8.206103E0,6.8835516E0,1.068602E1,6.6228714E0,6.3378973E0,4.903222E0,8.3804655E0,5.405672E0,7.239657E0,3.7219114E0,6.8086996E0,5.0144434E-1,5.599583E0,4.766148E0,6.5863953E0,4.5845785E0,1.9522204E0,2.0358505E0,3.9362793E0,3.752882E0,8.528721E0,3.5131683E0,3.4606645E0,4.914914E0,4.982604E0,0E0,2.6106358E-2,2.658937E0,5.6936574E0,1.8183429E0,2.9432359E0,2.9586306E0,1.8787384E-2,2.7453203E0,3.9376664E0,2.3826385E0,0E0,1.7846737E0,0E0,2.9629097E0,1.8936014E0,3.7099829E0,1.8458558E0,4.7678933E0,3.6183832E0,1.7842045E0,6.0869694E0,0E0,2.1826081E0,3.728345E0,0E0,3.8068738E0,4.4350977E0,0E0,0E0,0E0,1.4804735E0,4.848382E0,1.5519366E0,0E0,0E0,0E0,0E0,0E0,0E0,0E0,0E0,0E0,0E0,0E0,0E0,0E0,0E0,0E0,0E0,0E0,0E0,0E0,0E0,0E0,0E0,0E0,0E0,0E0,0E0,0E0,0E0,0E0,0E0,0E0,0E0,0E0,0E0,0E0,0E0,0E0,0E0,0E0,0E0,0E0,0E0,0E0,0E0,0E0,0E0],"parents":[2147483647,0,0,1,1,2,2,3,3,4,4,5,5,6,6,7,7,8,8,9,9,10,10,11,11,12,12,13,13,14,14,15,15,16,16,17,17,18,18,19,19,20,20,21,21,22,22,23,23,24,24,25,25,26,26,28,28,29,29,30,30,31,31,32,32,33,33,34,34,35,35,36,36,37,37,39,39,41,41,42,42,43,43,44,44,45,45,46,46,47,47,48,48,50,50,51,51,53,53,54,54,58,58,59,59,60,60],"right_children":[2,4,6,8,10,12,14,16,18,20,22,24,26,28,30,32,34,36,38,40,42,44,46,48,50,52,54,-1,56,58,60,62,64,66,68,70,72,74,-1,76,-1,78,80,82,84,86,88,90,92,-1,94,96,-1,98,100,-1,-1,-1,102,104,106,-1,-1,-1,-1,-1,-1,-1,-1,-1,-1,-1,-1,-1,-1,-1,-1,-1,-1,-1,-1,-1,-1,-1,-1,-1,-1,-1,-1,-1,-1,-1,-1,-1,-1,-1,-1,-1,-1,-1,-1,-1,-1,-1,-1,-1,-1],"split_conditions":[2.1606169E1,4.5241294E0,8.185381E0,2.2082963E0,1.0636244E1,2.9165952E2,-5.2E-1,1.95401E0,8.1289E0,1.9E2,4.04427E0,4.992386E1,8.53E-1,2.843511E2,1.5449289E0,1.0814E0,4.388E0,2.8908606E2,4.356226E1,2.991411E2,2.9535446E2,1.8328804E1,6.490596E0,2.82E2,1.327883E2,5.925E0,3.686E0,-3.2470725E-2,8.7622E0,4.778541E1,6.28E2,1.5737E1,2.983482E2,1.3799E1,4.597E3,1.0820939E1,4.153808E1,4.172E0,9.9430524E-2,5.719212E0,1.4708115E-1,6.96E-1,1.4955E1,4.6615E1,1.4049893E2,1.4391156E1,1.3800905E2,1.305E0,3.215E0,2.3513417E-1,-1.4E-1,-5E-1,-2.910922E-1,5.1929333E1,5.823E0,-3.142037E-1,-8.8414006E-2,-3.1590778E-1,1.7345167E1,5.77E0,1.3332402E2,-2.6450583E-1,4.9456283E-2,1.0947035E-1,-2.3071492E-1,-1.427958E-1,2.1365206E-1,-9.4718866E-2,-3.3486164E-1,2.3948917E-2,2.4114634E-1,-4.8202902E-2,8.855245E-2,-6.890663E-3,-3.4859902E-1,-2.1802072E-1,-1.4556183E-2,-1.0152154E-4,-4.969837E-1,-2.6068622E-1,7.08147E-2,-3.795974E-1,-4.5334054E-3,2.1894795E-1,-1.3531467E-1,1.983073E-6,2.4927817E-1,2.2383505E-1,-1.5618962E-1,2.839267E-1,-3.1834777E-2,1.5781617E-1,-2.515293E-1,6.841612E-2,-3.6658177E-1,-1.3594486E-1,2.4497387E-1,-1.5416756E-1,2.4719633E-1,1.8546784E-1,-1.1990957E-1,2.0243762E-1,-1.3753442E-1,-3.7508857E-2,7.16255E-2,2.8967999E-2,3.836552E-1],"split_indices":[5,4,4,0,0,12,9,2,2,3,2,13,10,12,0,2,8,12,0,12,12,5,4,6,1,2,2,0,2,13,6,14,12,14,7,5,13,8,0,4,0,10,14,13,1,5,1,11,2,0,9,9,0,5,2,0,0,0,4,2,1,0,0,0,0,0,0,0,0,0,0,0,0,0,0,0,0,0,0,0,0,0,0,0,0,0,0,0,0,0,0,0,0,0,0,0,0,0,0,0,0,0,0,0,0,0,0],"split_type":[0,0,0,0,0,0,0,0,0,0,0,0,0,0,0,0,0,0,0,0,0,0,0,0,0,0,0,0,0,0,0,0,0,0,0,0,0,0,0,0,0,0,0,0,0,0,0,0,0,0,0,0,0,0,0,0,0,0,0,0,0,0,0,0,0,0,0,0,0,0,0,0,0,0,0,0,0,0,0,0,0,0,0,0,0,0,0,0,0,0,0,0,0,0,0,0,0,0,0,0,0,0,0,0,0,0,0],"sum_hessian":[5.6543787E2,2.6256546E2,3.028724E2,1.6208571E2,1.0047976E2,1.15843956E2,1.8702846E2,4.6332832E1,1.1575287E2,3.604931E1,6.443045E1,5.192123E1,6.392272E1,7.600353E0,1.7942812E2,2.7942846E1,1.8389988E1,1.0636345E2,9.389418E0,1.9270454E1,1.6778854E1,1.5428445E1,4.9002003E1,4.7467754E1,4.453476E0,2.013573E1,4.378699E1,1.0085579E0,6.591795E0,8.989257E0,1.7043886E2,7.6056437E0,2.0337202E1,6.432289E0,1.1957699E1,2.6194595E1,8.016886E1,8.281046E0,1.1083715E0,1.7841715E1,1.4287391E0,1.2240451E1,4.538403E0,1.2062905E1,3.3655396E0,2.6627262E1,2.2374743E1,2.4944635E1,2.2523119E1,1.2241399E0,3.2293358E0,1.8993032E1,1.1426985E0,2.7019203E1,1.6767788E1,5.5542593E0,1.0375355E0,6.3355584E0,2.6536984E0,1.6524057E2,5.198283E0,5.7774825E0,1.8281615E0,1.869162E1,1.6455826E0,3.181013E0,3.2512758E0,1.0022594E0,1.095544E1,7.452571E0,1.8742023E1,2.893904E1,5.122982E1,2.5873003E0,5.6937456E0,1.2118088E1,5.7236266E0,1.1868315E0,1.1053619E1,2.0817044E0,2.456699E0,8.9096775E0,3.1532283E0,1.6927063E0,1.6728333E0,1.363838E1,1.2988881E1,1.6355627E0,2.073918E1,2.3424278E1,1.5203578E0,1.956145E1,2.96167E0,1.1562233E0,2.0731125E0,2.0052397E0,1.6987793E1,2.5596504E1,1.4226993E0,1.0942966E1,5.824822E0,1.157225E0,1.4964734E0,1.12033615E2,5.3206955E1,1.7058935E0,3.49239E0],"tree_param":{"num_deleted":"0","num_feature":"15","num_nodes":"107","size_leaf_vector":"1"}},{"base_weights":[-1.5080782E-2,8.79092E-3,-4.1510165E-1,2.3517321E-1,-3.172993E-2,-7.4577045E-1,-5.4243695E-2,9.799097E-1,1.2872764E-1,1.01080544E-1,-1.16873495E-1,-8.4030384E-1,8.60975E-2,-6.064461E-1,1.7502192E-1,1.1388764E0,1.56018E-2,-5.13078E-1,2.5380123E-1,-5.912488E-1,2.0805188E-1,6.0440563E-2,-3.2735157E-1,-9.9648523E-1,-1.1843892E-1,-2.5114095E-1,-1.8679765E-1,4.9662915E-1,-1.966529E-1,3.8681224E-2,3.8664427E-1,3.1024256E-1,-8.5287297E-1,-2.3793797E-1,3.025197E-1,9.286522E-2,-9.345285E-1,2.6854947E-1,-3.9181873E-1,3.3205092E-1,-1.3036813E-1,-5.1368594E-1,-5.8481634E-2,-4.2768133E-1,-3.2729986E-1,-1.8125477E-1,1.21139094E-1,-1.6275714E-1,7.802826E-2,-1.4312097E-1,7.195335E-1,1.6844076E-1,-7.29145E-2,-4.046577E-1,3.1968113E-3,3.0259691E-2,1.7531274E-1,-1.4431432E-1,1.2637196E-1,-3.9149824E-1,-1.2166534E-1,-2.1129276E-1,9.138973E-2,-4.123996E-2,-2.2180676E-1,-8.067417E-2,1.4764562E-1,-2.7381712E-1,3.279836E-2,-1.9921315E-1,1.086567E-2,6.4846486E-2,-1.7051658E-1,-1.9631264E-1,1.2487494E-2,-8.6485565E-2,2.8178725E-1],"categories":[],"categories_nodes":[],"categories_segments":[],"categories_sizes":[],"default_left":[0,0,0,0,0,0,0,0,0,0,0,0,0,0,0,0,0,0,0,0,0,0,0,0,0,0,0,0,0,0,0,0,0,0,0,0,0,0,0,0,0,0,0,0,0,0,0,0,0,0,0,0,0,0,0,0,0,0,0,0,0,0,0,0,0,0,0,0,0,0,0,0,0,0,0,0,0],"id":19,"left_children":[1,3,5,7,9,11,13,15,17,19,21,23,-1,25,27,29,-1,31,33,35,37,39,41,43,45,-1,47,49,-1,-1,-1,51,53,-1,55,57,59,61,63,65,67,69,71,73,-1,-1,-1,-1,-1,-1,75,-1,-1,-1,-1,-1,-1,-1,-1,-1,-1,-1,-1,-1,-1,-1,-1,-1,-1,-1,-1,-1,-1,-1,-1,-1,-1],"loss_changes":[5.245065E0,4.767942E0,3.650435E0,6.1290355E0,4.9991784E0,1.80935E0,2.1151779E0,1.3740015E0,5.764532E0,1.2922821E1,1.0067175E1,1.5697355E0,0E0,3.1601286E-1,3.527985E0,1.0827179E0,0E0,3.5597384E0,3.27018E0,5.5798817E0,5.564843E0,7.6598196E0,6.144889E0,1.8779087E-1,1.2073345E0,0E0,6.2090397E-1,2.3425848E0,0E0,0E0,0E0,7.166901E-1,3.6995387E0,0E0,3.208819E0,1.8469408E0,2.5407019E0,5.032608E0,1.1526144E0,5.994172E0,1.6422262E1,6.032736E0,7.3462257E0,3.8674504E-1,0E0,0E0,0E0,0E0,0E0,0E0,2.0191994E0,0E0,0E0,0E0,0E0,0E0,0E0,0E0,0E0,0E0,0E0,0E0,0E0,0E0,0E0,0E0,0E0,0E0,0E0,0E0,0E0,0E0,0E0,0E0,0E0,0E0,0E0],"parents":[2147483647,0,0,1,1,2,2,3,3,4,4,5,5,6,6,7,7,8,8,9,9,10,10,11,11,13,13,14,14,15,15,17,17,18,18,19,19,20,20,21,21,22,22,23,23,24,24,26,26,27,27,31,31,32,32,34,34,35,35,36,36,37,37,38,38,39,39,40,40,41,41,42,42,43,43,50,50],"right_children":[2,4,6,8,10,12,14,16,18,20,22,24,-1,26,28,30,-1,32,34,36,38,40,42,44,46,-1,48,50,-1,-1,-1,52,54,-1,56,58,60,62,64,66,68,70,72,74,-1,-1,-1,-1,-1,-1,76,-1,-1,-1,-1,-1,-1,-1,-1,-1,-1,-1,-1,-1,-1,-1,-1,-1,-1,-1,-1,-1,-1,-1,-1,-1,-1],"split_conditions":[2.308E0,2.866089E2,4.576E0,7.92E1,4.428E0,1.3992E1,-1E-1,4.812E0,2.823328E2,2E0,5.583E3,1.4315234E2,8.60975E-2,5.039E2,9.668E2,2.8219308E2,1.56018E-2,5.226E3,3.829708E1,9.74E-1,6.508E3,2.4005E0,1.527E1,8.83E1,6.142E3,-2.5114095E-1,5.527E3,1.1423345E1,-1.966529E-1,3.8681224E-2,3.8664427E-1,2.58E2,5.846E3,-2.3793797E-1,1.5170269E1,-2E-1,5.1E2,1.2190499E0,6.072E2,2.8985913E2,5.910399E0,4.744861E1,6.5805106E0,3.748E0,-3.2729986E-1,-1.8125477E-1,1.21139094E-1,-1.6275714E-1,7.802826E-2,-1.4312097E-1,1.2005E1,1.6844076E-1,-7.29145E-2,-4.046577E-1,3.1968113E-3,3.0259691E-2,1.7531274E-1,-1.4431432E-1,1.2637196E-1,-3.9149824E-1,-1.2166534E-1,-2.1129276E-1,9.138973E-2,-4.123996E-2,-2.2180676E-1,-8.067417E-2,1.4764562E-1,-2.7381712E-1,3.279836E-2,-1.9921315E-1,1.086567E-2,6.4846486E-2,-1.7051658E-1,-1.9631264E-1,1.2487494E-2,-8.6485565E-2,2.8178725E-1],"split_indices":[10,12,2,3,8,14,9,2,12,2,7,5,0,3,3,12,0,7,13,11,7,2,14,3,7,0,7,5,0,0,0,6,7,0,0,9,6,0,3,12,0,13,4,8,0,0,0,0,0,0,14,0,0,0,0,0,0,0,0,0,0,0,0,0,0,0,0,0,0,0,0,0,0,0,0,0,0],"split_type":[0,0,0,0,0,0,0,0,0,0,0,0,0,0,0,0,0,0,0,0,0,0,0,0,0,0,0,0,0,0,0,0,0,0,0,0,0,0,0,0,0,0,0,0,0,0,0,0,0,0,0,0,0,0,0,0,0,0,0,0,0,0,0,0,0,0,0,0,0,0,0,0,0,0,0,0,0],"sum_hessian":[5.4788654E2,5.17955E2,2.9931534E1,7.790588E1,4.4004913E2,1.5062497E1,1.4869037E1,8.716433E0,6.918945E1,1.7183171E2,2.6821744E2,1.3970103E1,1.0923939E0,3.8795934E0,1.0989443E1,7.247449E0,1.4689842E0,1.0778448E1,5.8411003E1,2.2390558E1,1.4944116E2,1.459646E2,1.2225282E2,1.1172425E1,2.797678E0,1.8614562E0,2.0181372E0,8.211669E0,2.7777746E0,1.1773155E0,6.070133E0,3.174246E0,7.604202E0,1.9178526E0,5.649315E1,7.7250223E0,1.4665537E1,1.3625229E2,1.3188869E1,5.992416E1,8.604045E1,7.167176E1,5.0581062E1,2.3791726E0,8.793252E0,1.3681839E0,1.4294943E0,1.0045341E0,1.0136031E0,1.3172712E0,6.8943973E0,2.172859E0,1.0013871E0,4.473006E0,3.1311958E0,3.372351E1,2.2769638E1,2.6422048E0,5.0828176E0,7.762271E0,6.903266E0,4.210512E0,1.3204178E2,8.421191E0,4.7676783E0,1.246293E1,4.7461227E1,1.9520075E1,6.652037E1,5.6119663E1,1.5552098E1,3.3249126E1,1.7331936E1,1.3383491E0,1.0408235E0,1.1783924E0,5.716005E0],"tree_param":{"num_deleted":"0","num_feature":"15","num_nodes":"77","size_leaf_vector":"1"}},{"base_weights":[-1.5738705E-2,-4.3461594E-1,8.744042E-3,1.23742335E-1,-4.8228818E-1,5.2307293E-2,-2.2803386E-1,-5.539074E-1,-1.0012303E-2,2.7749494E-1,8.6623506E-4,6.166991E-1,-2.819202E-1,-7.5793034E-1,-2.8987664E-1,1.2360323E-1,-2.8460923E-1,3.7836918E-1,-2.1184853E-1,-2.9181617E-1,1.017314E-1,-3.326326E-2,8.466321E-1,-6.5021896E-1,-1.6369328E-1,-3.1340888E-1,-8.7314945E-1,1.882413E-1,-5.0677437E-1,-2.1082781E-1,8.8628836E-2,4.4329792E-1,-5.976684E-1,3.1546974E-1,-7.1413594E-1,1.8782043E-1,-4.9008074E-1,2.282303E-1,-7.037806E-2,3.010164E-1,8.839044E-2,-7.9538566E-1,1.1256461E-1,4.1965672E-1,-2.7729693E-1,-2.2016568E-1,1.5653339E-1,-2.9388463E-1,-1.1023185E-1,1.97356E-1,-1.7735294E-1,-2.3389582E-1,1.0129691E-1,1.05753325E-1,2.3744725E-1,5.8752436E-2,-2.70084E-1,-8.0632314E-2,3.0565417E-1,-2.8184512E-1,3.999182E-3,1.10913746E-1,-2.8523457E-1,1.5577754E-2,-2.1761416E-1,1.2184279E-2,1.5003254E-1,-2.6081058E-1,5.337808E-3,5.5036645E-2,-2.749103E-1,2.0530342E-1,-1.10184096E-1,-3.3871178E-2,-2.2373366E-1],"categories":[],"categories_nodes":[],"categories_segments":[],"categories_sizes":[],"default_left":[0,0,0,0,0,0,0,0,0,0,0,0,0,0,0,0,0,0,0,0,0,0,0,0,0,0,0,0,0,0,0,0,0,0,0,0,0,0,0,0,0,0,0,0,0,0,0,0,0,0,0,0,0,0,0,0,0,0,0,0,0,0,0,0,0,0,0,0,0,0,0,0,0,0,0],"id":20,